svm_type c_svc
kernel_type linear
nr_class 2
total_sv 15
rho 6.09608
label -1 1
probA -0.0380375
probB -0.647671
nr_sv 10 5
SV
0.01687450386683699 1:0.046 2:0.052 3:0.049 4:0.044 5:0.047 6:0.052 7:0.05 8:0.047 9:0.053 10:0.055 11:0.054 12:0.063 13:0.065 14:0.07 15:0.074 16:0.077 17:0.083 18:0.09 19:0.09 20:0.091 21:0.096 22:0.1 23:0.102 24:0.103 25:0.105 26:0.104 27:0.104 28:0.109 29:0.113 30:0.108 31:0.118 32:0.125 33:0.119 34:0.13 35:0.143 36:0.148 37:0.155 38:0.163 39:0.164 40:0.177 41:0.184 42:0.188 43:0.187 44:0.187 45:0.196 46:0.192 47:0.181 48:0.19 49:0.202 50:0.2 51:0.201 52:0.211 53:0.217 54:0.232 55:0.25 56:0.241 57:0.246 58:0.269 59:0.271 60:0.268 61:0.285 62:0.3 63:0.299 64:0.323 65:0.325 66:0.329 67:0.358 68:0.372 69:0.362 70:0.368 71:0.407 72:0.426 73:0.434 74:0.425 75:0.461 76:0.502 77:0.491 78:0.484 79:0.544 80:0.552 81:0.542 82:0.584 83:0.612 84:0.597 85:0.592 86:0.634 87:0.65 88:0.643 89:0.656 90:0.709 91:0.729 92:0.692 93:0.739 94:0.782 95:0.73 96:0.747 97:0.836 98:0.813 99:0.785 100:0.852 101:0.864 102:0.836 103:0.899 104:0.94 105:0.898 106:0.901 107:1 108:0.991 109:0.901 110:0.932 111:0.967 112:0.938 113:0.922 114:0.912 115:0.913 116:0.878 117:0.857 118:0.839 119:0.806 120:0.808 121:0.789 122:0.738 123:0.754 124:0.774 125:0.708 126:0.662 127:0.695 128:0.66 129:0.607 130:0.617 131:0.603 132:0.586 133:0.578 134:0.558 135:0.568 136:0.553 137:0.517 138:0.518 139:0.523 140:0.489 141:0.475 142:0.472 143:0.459 144:0.451 145:0.445 146:0.432 147:0.44 148:0.43 149:0.401 150:0.406 151:0.427 152:0.41 153:0.383 154:0.362 155:0.377 156:0.383 157:0.354 158:0.342 159:0.358 160:0.336 161:0.32 162:0.339 163:0.326 164:0.304 165:0.307 166:0.296 167:0.289 168:0.275 169:0.262 170:0.276 171:0.259 172:0.244 173:0.242 174:0.227 175:0.223 176:0.209 177:0.197 178:0.18 179:0.178 180:0.18 181:0.165 182:0.162 183:0.166 184:0.152 185:0.131 186:0.141 187:0.131 188:0.103 189:0.099 190:0.102 191:0.099 192:0.114 193:0.099 194:0.096 195:0.094 196:0.097 197:0.079 198:0.081 199:0.086 200:0.064 201:0.04 202:0.045 203:0.065 204:0.052 205:0.056 206:0.059 207:0.062 208:0.055 209:0.046 210:0.045 211:0.043 212:0.024 213:0.015 214:0.026 215:0.186 216:0.209 217:0.231 218:0.248 219:0.227 220:0.257 221:0.252 222:0.301 223:0.241 224:0.295 225:0.28 226:0.288 227:0.32 228:0.33 229:0.299 230:0.381 231:0.369 232:0.384 233:0.371 234:0.421 235:0.478 236:0.457 237:0.52 238:0.511 239:0.49 240:0.548 241:0.505 242:0.536 243:0.567 244:0.559 245:0.601 246:0.54 247:0.62 248:0.609 249:0.604 250:0.642 251:0.696 252:0.681 253:0.646 254:0.708 255:0.657 256:0.669 257:0.716 258:0.74 259:0.683 260:0.754 261:0.818 262:0.72 263:0.749 264:0.796 265:0.781 266:0.766 267:0.818 268:0.793 269:0.836 270:0.839 271:0.842 272:0.838 273:0.875 274:0.913 275:0.891 276:0.946 277:0.944 278:0.938 279:0.94 280:0.97 281:0.986 282:0.951 283:0.922 284:0.958 285:0.945 286:0.901 287:0.898 288:0.896 289:0.907 290:0.875 291:0.834 292:0.845 293:0.916 294:0.908 295:0.846 296:0.914 297:0.859 298:0.805 299:0.867 300:0.849 301:0.799 302:0.828 303:0.841 304:0.838 305:0.892 306:0.901 307:0.855 308:0.855 309:0.942 310:0.955 311:0.851 312:0.901 313:0.861 314:0.85 315:0.866 316:0.859 317:0.792 318:0.826 319:0.834 320:0.84 321:0.774 322:0.749 323:0.81 324:0.871 325:0.842 326:0.802 327:0.897 328:0.807 329:0.88 330:0.993 331:0.888 332:0.869 333:0.936 334:0.924 335:0.983 336:0.917 337:0.887 338:0.966 339:0.91 340:0.988 341:0.979 342:0.905 343:0.882 344:1 345:0.967 346:0.94 347:0.953 348:0.863 349:0.825 350:0.929 351:0.8 352:0.752 353:0.837 354:0.733 355:0.755 356:0.741 357:0.702 358:0.69 359:0.681 360:0.649 361:0.6 362:0.611 363:0.58 364:0.571 365:0.579 366:0.557 367:0.538 368:0.491 369:0.495 370:0.446 371:0.442 372:0.445 373:0.46 374:0.372 375:0.368 376:0.416 377:0.34 378:0.341 379:0.316 380:0.33 381:0.263 382:0.302 383:0.276 384:0.266 385:0.231 386:0.268 387:0.259 388:0.287 389:0.22 390:0.219 391:0.195 392:0.219 393:0.174 394:0.103 395:0.067 396:0.133 397:0.107 398:0.14 399:0.16 400:0.171 401:0.124 402:0.084 403:0.06 404:0.052 405:0.095 406:0.074 407:0.083 408:0.045 409:0.058 410:0.057 411:0.06 412:0.034 413:0.093 414:0.089 415:0.097 416:0.063 417:0.088 418:0.046 419:0.079 420:0.018 421:0.058 422:0.043 423:0.039 424:0.047 425:0.054 426:0.029 427:0.038 428:0.1 429:0.168 430:0.165 431:0.157 432:0.16 433:0.159 434:0.167 435:0.158 436:0.116 437:0.234 438:0.114 439:0.286 440:0.198 441:0.194 442:0.115 443:0.156 444:0.088 445:0.278 446:0.14 447:0.218 448:0.25 449:0.409 450:0.189 451:0.242 452:0.233 453:0.267 454:0.276 455:0.21 456:0.275 457:0.29 458:0.298 459:0.181 460:0.324 461:0.275 462:0.251 463:0.23 464:0.336 465:0.207 466:0.338 467:0.245 468:0.274 469:0.263 470:0.321 471:0.324 472:0.365 473:0.249 474:0.32 475:0.268 476:0.33 477:0.265 478:0.384 479:0.387 480:0.3 481:0.371 482:0.329 483:0.336 484:0.41 485:0.444 486:0.279 487:0.374 488:0.294 489:0.451 490:0.352 491:0.449 492:0.356 493:0.557 494:0.419 495:0.465 496:0.521 497:0.572 498:0.567 499:0.559 500:0.568 501:0.634 502:0.526 503:0.542 504:0.684 505:0.717 506:0.66 507:0.656 508:0.68 509:0.578 510:0.674 511:0.563 512:0.559 513:0.632 514:0.585 515:0.727 516:0.613 517:0.701 518:0.693 519:0.519 520:0.593 521:0.899 522:0.769 523:0.575 524:0.753 525:0.851 526:0.851 527:0.885 528:0.65 529:0.688 530:0.762 531:0.876 532:0.48 533:0.651 534:0.88 535:0.632 536:0.563 537:0.747 538:0.773 539:0.564 540:0.598 541:0.769 542:0.614 543:0.785 544:0.518 545:0.697 546:0.593 547:0.597 548:0.607 549:0.777 550:0.616 551:0.678 552:0.453 553:0.652 554:0.606 555:0.755 556:0.425 557:0.518 558:0.616 559:0.679 560:0.486 561:0.718 562:0.565 563:0.59 564:0.628 565:0.63 566:0.575 567:0.754 568:0.448 569:0.73 570:0.639 571:0.644 572:0.588 573:0.765 574:0.61 575:0.802 576:0.672 577:0.661 578:0.625 579:0.737 580:0.454 581:0.58 582:0.469 583:0.491 584:0.478 585:0.617 586:0.642 587:0.628 588:0.429 589:0.637 590:0.762 591:0.746 592:0.756 593:0.96 594:0.575 595:0.644 596:0.627 597:0.969 598:0.695 599:0.666 600:0.666 601:0.81 602:0.579 603:0.789 604:0.587 605:0.37 606:0.689 607:0.798 608:0.908 609:0.848 610:0.966 611:0.536 612:0.663 613:1 614:0.498 615:0.942 616:0.546 617:0.832 618:0.637 619:0.62 620:0.547 621:0.599 622:0.286 623:0.85 624:0.491 625:0.646 626:0.267 627:0.582 628:0.228 629:0.19 630:0.217 631:0.395 632:0.332 633:0.05 634:0.366 635:0.411 636:0.305 637:0.103 638:0.355 639:0.215 640:0.167 641:0.157 642:0.073 643:0.188 644:0.05 645:0.048 646:0.047 647:0.057 648:0.027 649:0.029 650:0.045 651:0.05 652:0.12 653:0.108 654:0.061 655:0.091 656:0.034 657:0.118 658:0.085 659:0.126 660:0.097 661:0.123 662:0.146 663:0.096 664:0.131 665:0.074 666:0.156 667:0.133 668:0.262 669:0.238 670:0.139 671:0.194 672:0.278 673:0.286 674:0.195 675:0.361 676:0.295 677:0.372 678:0.28 679:0.475 680:0.534 681:0.342 682:0.711 683:0.563 684:0.663 685:0.816 686:1 687:0.764 688:0.644 689:0.774 690:0.886 691:0.616 692:0.61 693:0.817 694:0.58 695:0.807 696:0.484 697:0.819 698:0.752 699:0.939 700:0.819 701:0.934 702:0.781 703:0.739 704:0.662 705:0.665 706:0.652 707:0.646 708:0.442 709:0.593 710:0.541 711:0.559 712:0.613 713:0.618 714:0.545 715:0.713 716:0.551 717:0.718 718:0.747 719:0.587 720:0.677 721:0.728 722:0.879 723:0.877 724:0.837 725:0.729 726:0.761 727:0.692 728:0.795 729:0.714 730:0.614 731:0.665 732:0.69 733:0.605 734:0.714 735:0.747 736:0.595 737:0.762 738:0.643 739:0.608 740:0.529 741:0.614 742:0.476 743:0.496 744:0.464 745:0.422 746:0.582 747:0.515 748:0.452 749:0.329 750:0.455 751:0.411 752:0.449 753:0.347 754:0.403 755:0.144 756:0.19 757:0.222 758:0.168 759:0.213 760:0.215 761:0.123 762:0.089 763:0.198 764:0.12 765:0.145 766:0.114 767:0.094 768:0.017 769:0.049 770:0.048 771:0.072 772:0.065 773:0.038 774:0.059 775:0.018 776:0.04 777:0.05 778:0.054 779:0.015 780:0.036 781:0.004 782:0.017 783:0.054 784:0.018 785:0.029 786:0.062 787:0.048 788:0.05 789:0.046 790:0.05 791:0.047 792:0.048 793:0.052 794:0.048 795:0.05 796:0.057 797:0.057 798:0.062 799:0.062 800:0.065 801:0.07 802:0.072 803:0.078 804:0.081 805:0.089 806:0.093 807:0.094 808:0.1 809:0.114 810:0.109 811:0.124 812:0.124 813:0.129 814:0.125 815:0.132 816:0.126 817:0.131 818:0.139 819:0.133 820:0.139 821:0.151 822:0.157 823:0.16 824:0.171 825:0.181 826:0.177 827:0.191 828:0.194 829:0.198 830:0.202 831:0.207 832:0.206 833:0.211 834:0.214 835:0.229 836:0.22 837:0.24 838:0.252 839:0.253 840:0.257 841:0.279 842:0.279 843:0.286 844:0.306 845:0.314 846:0.305 847:0.323 848:0.333 849:0.334 850:0.344 851:0.342 852:0.345 853:0.377 854:0.402 855:0.385 856:0.391 857:0.429 858:0.451 859:0.462 860:0.467 861:0.495 862:0.536 863:0.554 864:0.557 865:0.584 866:0.602 867:0.619 868:0.657 869:0.659 870:0.661 871:0.673 872:0.724 873:0.722 874:0.726 875:0.731 876:0.778 877:0.778 878:0.771 879:0.783 880:0.835 881:0.805 882:0.788 883:0.874 884:0.916 885:0.856 886:0.886 887:0.919 888:0.902 889:0.958 890:0.959 891:0.889 892:0.924 893:1 894:0.973 895:0.878 896:0.901 897:0.963 898:0.942 899:0.897 900:0.886 901:0.874 902:0.845 903:0.868 904:0.823 905:0.756 906:0.779 907:0.795 908:0.723 909:0.717 910:0.75 911:0.699 912:0.666 913:0.683 914:0.673 915:0.626 916:0.634 917:0.62 918:0.583 919:0.568 920:0.544 921:0.536 922:0.508 923:0.485 924:0.484 925:0.477 926:0.449 927:0.441 928:0.441 929:0.424 930:0.42 931:0.395 932:0.388 933:0.4 934:0.39 935:0.365 936:0.375 937:0.392 938:0.363 939:0.355 940:0.351 941:0.361 942:0.341 943:0.326 944:0.312 945:0.302 946:0.285 947:0.268 948:0.279 949:0.249 950:0.234 951:0.239 952:0.235 953:0.216 954:0.218 955:0.207 956:0.208 957:0.194 958:0.173 959:0.169 960:0.169 961:0.151 962:0.152 963:0.141 964:0.139 965:0.14 966:0.137 967:0.106 968:0.095 969:0.099 970:0.099 971:0.081 972:0.08 973:0.089 974:0.076 975:0.068 976:0.053 977:0.067 978:0.074 979:0.056 980:0.07 981:0.08 982:0.075 983:0.058 984:0.066 985:0.057 986:0.041 987:0.04 988:0.038 989:0.034 990:0.031 991:0.04 992:0.035 993:0.036 994:0.033 995:0.034 996:0.023 997:0.031 998:0.012 999:0.027 1000:0.025 1001:0.131 1002:0.144 1003:0.182 1004:0.123 1005:0.176 1006:0.192 1007:0.131 1008:0.163 1009:0.157 1010:0.188 1011:0.153 1012:0.17 1013:0.201 1014:0.193 1015:0.211 1016:0.242 1017:0.254 1018:0.256 1019:0.27 1020:0.29 1021:0.319 1022:0.265 1023:0.314 1024:0.374 1025:0.309 1026:0.332 1027:0.337 1028:0.328 1029:0.351 1030:0.349 1031:0.397 1032:0.369 1033:0.395 1034:0.402 1035:0.421 1036:0.402 1037:0.435 1038:0.456 1039:0.418 1040:0.472 1041:0.46 1042:0.492 1043:0.529 1044:0.519 1045:0.516 1046:0.534 1047:0.579 1048:0.582 1049:0.557 1050:0.509 1051:0.551 1052:0.544 1053:0.565 1054:0.539 1055:0.562 1056:0.592 1057:0.598 1058:0.632 1059:0.67 1060:0.651 1061:0.647 1062:0.654 1063:0.664 1064:0.72 1065:0.674 1066:0.659 1067:0.751 1068:0.762 1069:0.687 1070:0.735 1071:0.718 1072:0.688 1073:0.727 1074:0.687 1075:0.653 1076:0.677 1077:0.65 1078:0.614 1079:0.66 1080:0.646 1081:0.688 1082:0.648 1083:0.631 1084:0.612 1085:0.677 1086:0.676 1087:0.626 1088:0.604 1089:0.651 1090:0.61 1091:0.618 1092:0.648 1093:0.653 1094:0.644 1095:0.715 1096:0.659 1097:0.69 1098:0.596 1099:0.667 1100:0.604 1101:0.619 1102:0.656 1103:0.645 1104:0.611 1105:0.659 1106:0.659 1107:0.613 1108:0.653 1109:0.578 1110:0.747 1111:0.558 1112:0.576 1113:0.642 1114:0.655 1115:0.665 1116:0.698 1117:0.656 1118:0.586 1119:0.675 1120:0.601 1121:0.765 1122:0.678 1123:0.633 1124:0.577 1125:0.666 1126:0.648 1127:0.687 1128:0.666 1129:0.647 1130:0.641 1131:0.616 1132:0.504 1133:0.618 1134:0.567 1135:0.515 1136:0.538 1137:0.588 1138:0.474 1139:0.437 1140:0.459 1141:0.485 1142:0.451 1143:0.421 1144:0.454 1145:0.377 1146:0.426 1147:0.338 1148:0.36 1149:0.364 1150:0.319 1151:0.264 1152:0.263 1153:0.273 1154:0.312 1155:0.273 1156:0.245 1157:0.244 1158:0.221 1159:0.2 1160:0.228 1161:0.217 1162:0.175 1163:0.151 1164:0.132 1165:0.2 1166:0.209 1167:0.136 1168:0.239 1169:0.122 1170:0.1 1171:0.178 1172:0.069 1173:0.109 1174:0.179 1175:0.1 1176:0.086 1177:0.109 1178:0.116 1179:0.116 1180:0.109 1181:0.094 1182:0.115 1183:0.027 1184:0.048 1185:0.135 1186:0.038 1187:0.045 1188:0.085 1189:0.038 1190:0.004 1191:0.047 1192:0.048 1193:0.056 1194:0.026 1195:0.024 1196:0.089 1197:0.026 1198:0.031 1199:0.039 1200:0.065 1201:0.058 1202:0.064 1203:0.071 1204:0.071 1205:0.042 1206:0.068 1207:0.011 1208:0.019 1209:0.108 1210:0.031 1211:0.06 1212:0.076 1213:0.02 1214:0.034 1215:0.232 1216:0.129 1217:0.031 1218:0.023 1219:0.153 1220:0.055 1221:0.091 1222:0.076 1223:0.196 1224:0.106 1225:0.098 1226:0.056 1227:0.151 1228:0.139 1229:0.097 1230:0.082 1231:0.095 1232:0.118 1233:0.067 1234:0.098 1235:0.131 1236:0.204 1237:0.139 1238:0.045 1239:0.098 1240:0.225 1241:0.179 1242:0.111 1243:0.029 1244:0.126 1245:0.151 1246:0.224 1247:0.024 1248:0.116 1249:0.156 1250:0.206 1251:0.11 1252:0.175 1253:0.178 1254:0.138 1255:0.073 1256:0.152 1257:0.263 1258:0.199 1259:0.19 1260:0.1 1261:0.235 1262:0.171 1263:0.164 1264:0.137 1265:0.108 1266:0.096 1267:0.232 1268:0.08 1269:0.149 1270:0.164 1271:0.188 1272:0.015 1273:0.222 1274:0.224 1275:0.167 1276:0.124 1277:0.053 1278:0.174 1279:0.153 1280:0.135 1281:0.177 1282:0.283 1283:0.127 1284:0.186 1285:0.18 1286:0.29 1287:0.301 1288:0.272 1289:0.283 1290:0.177 1291:0.189 1292:0.226 1293:0.196 1294:0.067 1295:0.278 1296:0.264 1297:0.215 1298:0.274 1299:0.208 1300:0.189 1301:0.153 1302:0.236 1303:0.28 1304:0.178 1305:0.226 1306:0.303 1307:0.178 1308:0.249 1309:0.22 1310:0.201 1311:0.153 1312:0.238 1313:0.19 1314:0.425 1315:0.049 1316:0.285 1317:0.32 1318:0.441 1319:0.248 1320:0.264 1321:0.397 1322:0.261 1323:0.206 1324:0.268 1325:0.15 1326:0.242 1327:0.174 1328:0.209 1329:0.317 1330:0.323 1331:0.261 1332:0.259 1333:0.101 1334:0.147 1335:0.148 1336:0.111 1337:0.154 1338:0.218 1339:0.204 1340:0.061 1341:0.262 1342:0.176 1343:0.174 1344:0.134 1345:0.231 1346:0.251 1347:0.029 1348:0.247 1349:0.227 1350:0.194 1351:0.036 1352:0.248 1353:0.279 1354:0.144 1355:0.062 1356:0.3 1357:0.367 1358:0.158 1359:0.099 1360:0.322 1361:0.226 1362:0.134 1363:0.022 1364:0.326 1365:0.15 1366:0.043 1367:0.049 1368:0.2 1369:0.17 1370:0.264 1371:0.053 1372:0.323 1373:0.185 1374:0.096 1375:0.155 1376:0.156 1377:0.425 1378:0.062 1379:0.396 1380:0.231 1381:0.329 1382:0.276 1383:0.11 1384:0.489 1385:0.306 1386:0.229 1387:0.377 1388:0.464 1389:0.081 1390:0.14 1391:1 1392:0.865 1393:0.283 1394:0.286 1395:0.555 1396:0.281 1397:0.387 1398:0.099 1399:0.308 1400:0.49 1401:0.923 1402:0.443 1403:0.16 1404:0.074 1405:0.367 1406:0.319 1407:0.767 1408:0.182 1409:0.24 1410:0.799 1411:0.415 1412:0.543 1413:0.391 1414:0.016 1415:0.134 1416:0.192 1417:0.369 1418:0.152 1419:0.169 1420:0.179 1421:0.233 1422:0.184 1423:0.046 1424:0.067 1425:0.168 1426:0.108 1427:0.092 1428:0.141 1429:0.13 1430:0.093 1431:0.097 1432:0.064 1433:0.103 1434:0.114 1435:0.053 1436:0.079 1437:0.023 1438:0.032 1439:0.045 1440:0.09 1441:0.042 1442:0.157 1443:0.085 1444:0.05 1445:0.064 1446:0.055 1447:0.082 1448:0.286 1449:0.033 1450:0.045 1451:0.087 1452:0.023 1453:0.137 1454:0.337 1455:0.056 1456:0.056 1457:0.165 1458:0.023 1459:0.136 1460:0.147 1461:0.08 1462:0.326 1463:0.458 1464:0.646 1465:0.353 1466:0.336 1467:0.277 1468:0.161 1469:0.254 1470:0.172 1471:0.272 1472:0.397 1473:0.521 1474:0.408 1475:0.059 1476:0.158 1477:0.222 1478:0.29 1479:0.308 1480:0.54 1481:0.287 1482:1 1483:0.26 1484:0.15 1485:0.224 1486:0.093 1487:0.46 1488:0.264 1489:0.17 1490:0.368 1491:0.122 1492:0.237 1493:0.205 1494:0.077 1495:0.141 1496:0.279 1497:0.254 1498:0.169 1499:0.141 1500:0.079 1501:0.108 1502:0.054 1503:0.102 1504:0.252 1505:0.109 1506:0.112 1507:0.245 1508:0.05 1509:0.118 1510:0.09 1511:0.164 1512:0.229 1513:0.064 1514:0.208 1515:0.165 1516:0.063 1517:0.215 1518:0.226 1519:0.088 1520:0.162 1521:0.083 1522:0.075 1523:0.075 1524:0.099 1525:0.137 1526:0.17 1527:0.262 1528:0.075 1529:0.118 1530:0.289 1531:0.282 1532:0.093 1533:0.313 1534:0.244 1535:0.217 1536:0.047 1537:0.237 1538:0.177 1539:0.161 1540:0.235 1541:0.128 1542:0.128 1543:0.169 1544:0.19 1545:0.03 1546:0.134 1547:0.156 1548:0.104 1549:0.08 1550:0.129 1551:0.083 1552:0.052 1553:0.045 1554:0.061 1555:0.046 1556:0.037 1557:0.037 1558:0.023 1559:0.029 1560:0.032 1561:0.032 1562:0.027 1563:0.028 1564:0.052 1565:0.008 1566:0.016 1567:0.01 1568:0.018 1569:0.017 1570:0.029 1571:0.072 1572:0.025 1573:0.034 1574:0.035 1575:0.017 1576:0.022 1577:0.033 1578:0.03 1579:0.041 1580:0.018 1581:0.043 1582:0.041 1583:0.024 1584:0.034 1585:0.046 1586:0.027 1587:0.043 1588:0.025 1589:0.024 1590:0.035 1591:0.028 1592:0.036 1593:0.024 1594:0.021 1595:0.052 1596:0.015 1597:0.039 1598:0.045 1599:0.021 1600:0.037 1601:0.043 1602:0.021 1603:0.042 1604:0.01 1605:0.027 1606:0.042 1607:0.009 1608:0.04 1609:0.022 1610:0.023 1611:0.038 1612:0.039 1613:0.009 1614:0.028 1615:0.015 1616:0.024 1617:0.019 1618:0.029 1619:0.004 1620:0.024 1621:0.008 1622:0.016 1623:0.037 1624:0.005 1625:0.012 1626:0.043 1627:0.016 1628:0.022 1629:0.03 1630:0.016 1631:0.077 1632:0.052 1633:0.052 1634:0.101 1635:0.058 1636:0.09 1637:0.064 1638:0.051 1639:0.107 1640:0.116 1641:0.134 1642:0.154 1643:0.118 1644:0.19 1645:0.186 1646:0.124 1647:0.217 1648:0.152 1649:0.158 1650:0.263 1651:0.246 1652:0.285 1653:0.33 1654:0.295 1655:0.327 1656:0.378 1657:0.429 1658:0.316 1659:0.483 1660:0.42 1661:0.48 1662:0.453 1663:0.415 1664:0.46 1665:0.547 1666:0.537 1667:0.528 1668:0.603 1669:0.712 1670:0.621 1671:0.546 1672:0.747 1673:0.643 1674:0.682 1675:0.727 1676:0.782 1677:0.762 1678:0.854 1679:0.896 1680:0.828 1681:0.812 1682:0.837 1683:0.932 1684:0.88 1685:0.813 1686:0.859 1687:0.828 1688:0.76 1689:0.815 1690:0.858 1691:0.816 1692:0.887 1693:0.826 1694:0.783 1695:0.843 1696:0.846 1697:0.809 1698:0.784 1699:0.813 1700:0.781 1701:0.663 1702:0.769 1703:0.763 1704:0.692 1705:0.738 1706:0.678 1707:0.72 1708:0.71 1709:0.656 1710:0.647 1711:0.694 1712:0.621 1713:0.584 1714:0.623 1715:0.605 1716:0.586 1717:0.64 1718:0.541 1719:0.604 1720:0.626 1721:0.556 1722:0.624 1723:0.596 1724:0.56 1725:0.555 1726:0.603 1727:0.537 1728:0.59 1729:0.501 1730:0.513 1731:0.534 1732:0.512 1733:0.463 1734:0.506 1735:0.445 1736:0.487 1737:0.521 1738:0.393 1739:0.439 1740:0.337 1741:0.355 1742:0.389 1743:0.384 1744:0.309 1745:0.366 1746:0.331 1747:0.289 1748:0.276 1749:0.254 1750:0.239 1751:0.301 1752:0.199 1753:0.221 1754:0.264 1755:0.242 1756:0.202 1757:0.251 1758:0.15 1759:0.2 1760:0.199 1761:0.187 1762:0.143 1763:0.217 1764:0.13 1765:0.166 1766:0.181 1767:0.137 1768:0.118 1769:0.131 1770:0.137 1771:0.142 1772:0.078 1773:0.057 1774:0.14 1775:0.094 1776:0.04 1777:0.113 1778:0.044 1779:0.052 1780:0.095 1781:0.102 1782:0.026 1783:0.047 1784:0.034 1785:0.051 1786:0.039 1787:0.126 1788:0.084 1789:0.073 1790:0.094 1791:0.057 1792:0.109 1793:0.1 1794:0.046 1795:0.102 1796:0.095 1797:0.113 1798:0.105 1799:0.088 1800:0.142 1801:0.147 1802:0.156 1803:0.119 1804:0.173 1805:0.185 1806:0.142 1807:0.142 1808:0.111 1809:0.185 1810:0.14 1811:0.167 1812:0.254 1813:0.213 1814:0.196 1815:0.229 1816:0.247 1817:0.254 1818:0.228 1819:0.246 1820:0.295 1821:0.3 1822:0.287 1823:0.321 1824:0.307 1825:0.312 1826:0.307 1827:0.406 1828:0.36 1829:0.374 1830:0.411 1831:0.357 1832:0.36 1833:0.41 1834:0.394 1835:0.383 1836:0.372 1837:0.419 1838:0.416 1839:0.442 1840:0.415 1841:0.435 1842:0.462 1843:0.506 1844:0.55 1845:0.527 1846:0.554 1847:0.573 1848:0.565 1849:0.622 1850:0.548 1851:0.604 1852:0.632 1853:0.633 1854:0.664 1855:0.633 1856:0.632 1857:0.731 1858:0.649 1859:0.646 1860:0.555 1861:0.629 1862:0.649 1863:0.62 1864:0.638 1865:0.703 1866:0.728 1867:0.719 1868:0.757 1869:0.706 1870:0.632 1871:0.706 1872:0.779 1873:0.613 1874:0.72 1875:0.697 1876:0.658 1877:0.717 1878:0.799 1879:0.727 1880:0.797 1881:0.81 1882:0.791 1883:0.734 1884:0.763 1885:0.813 1886:0.837 1887:0.843 1888:0.825 1889:0.829 1890:0.879 1891:0.942 1892:0.852 1893:0.835 1894:0.812 1895:0.828 1896:0.856 1897:0.79 1898:0.857 1899:0.838 1900:0.801 1901:0.882 1902:0.935 1903:0.896 1904:0.889 1905:1 1906:0.966 1907:0.892 1908:0.969 1909:0.949 1910:0.984 1911:0.917 1912:0.97 1913:0.871 1914:0.942 1915:0.91 1916:0.999 1917:0.97 1918:0.816 1919:0.889 1920:0.843 1921:0.931 1922:0.892 1923:0.86 1924:0.766 1925:0.844 1926:0.772 1927:0.83 1928:0.741 1929:0.766 1930:0.707 1931:0.623 1932:0.621 1933:0.67 1934:0.643 1935:0.577 1936:0.561 1937:0.668 1938:0.516 1939:0.448 1940:0.536 1941:0.493 1942:0.466 1943:0.43 1944:0.52 1945:0.486 1946:0.42 1947:0.456 1948:0.47 1949:0.396 1950:0.338 1951:0.395 1952:0.268 1953:0.291 1954:0.311 1955:0.28 1956:0.288 1957:0.29 1958:0.283 1959:0.133 1960:0.224 1961:0.243 1962:0.135 1963:0.147 1964:0.173 1965:0.165 1966:0.072 1967:0.187 1968:0.182 1969:0.101 1970:0.186 1971:0.146 1972:0.165 1973:0.133 1974:0.098 1975:0.122 1976:0.095 1977:0.029 1978:0.079 1979:0.023 1980:0.085 1981:0.088 1982:0.023 1983:0.077 1984:0.122 1985:0.165 1986:0.02 1987:0.008 1988:0.1 1989:0.074 1990:0.067 1991:0.11 1992:0.125 1993:0.024 1994:0.076 1995:0.114 1996:0.057 1997:0.041 1998:0.034 1999:0.012 2000:0.042 2001:0.036 2002:0.024 2003:0.069 2004:0.059 2005:0.006 2006:0.032 2007:0.071 2008:0.033 2009:0.043 2010:0.029 2011:0.017 2012:0.059 2013:0.026 2014:0.016 2015:0.041 2016:0.016 2017:0.046 2018:0.052 2019:0.066 2020:0.059 2021:0.024 2022:0.076 2023:0.074 2024:0.056 2025:0.075 2026:0.036 2027:0.092 2028:0.068 2029:0.077 2030:0.056 2031:0.073 2032:0.087 2033:0.143 2034:0.119 2035:0.085 2036:0.111 2037:0.077 2038:0.086 2039:0.065 2040:0.066 2041:0.104 2042:0.102 2043:0.113 2044:0.144 2045:0.075 2046:0.187 2047:0.185 2048:0.194 2049:0.127 2050:0.186 2051:0.214 2052:0.185 2053:0.238 2054:0.151 2055:0.156 2056:0.196 2057:0.233 2058:0.234 2059:0.224 2060:0.2 2061:0.193 2062:0.253 2063:0.206 2064:0.252 2065:0.266 2066:0.266 2067:0.203 2068:0.336 2069:0.313 2070:0.281 2071:0.284 2072:0.255 2073:0.297 2074:0.349 2075:0.36 2076:0.286 2077:0.34 2078:0.274 2079:0.318 2080:0.392 2081:0.282 2082:0.359 2083:0.421 2084:0.298 2085:0.375 2086:0.373 2087:0.429 2088:0.331 2089:0.346 2090:0.424 2091:0.277 2092:0.343 2093:0.419 2094:0.501 2095:0.355 2096:0.347 2097:0.513 2098:0.489 2099:0.425 2100:0.388 2101:0.453 2102:0.427 2103:0.467 2104:0.418 2105:0.344 2106:0.549 2107:0.281 2108:0.297 2109:0.373 2110:0.437 2111:0.369 2112:0.355 2113:0.357 2114:0.366 2115:0.42 2116:0.373 2117:0.372 2118:0.453 2119:0.302 2120:0.358 2121:0.397 2122:0.398 2123:0.398 2124:0.396 2125:0.355 2126:0.433 2127:0.316 2128:0.314 2129:0.405 2130:0.429 2131:0.298 2132:0.309 2133:0.455 2134:0.359 2135:0.364 2136:0.445 2137:0.329 2138:0.371 2139:0.479 2140:0.327 2141:0.316 2142:0.392 2143:0.37 2144:0.26 2145:0.432 2146:0.416 2147:0.396 2148:0.41 2149:0.311 2150:0.328 2151:0.32 2152:0.204 2153:0.316 2154:0.34 2155:0.229 2156:0.296 2157:0.384 2158:0.312 2159:0.331 2160:0.338 2161:0.298 2162:0.402 2163:0.34 2164:0.402 2165:0.31 2166:0.41 2167:0.367 2168:0.423 2169:0.339 2170:0.468 2171:0.412 2172:0.386 2173:0.252 2174:0.583 2175:0.446 2176:0.229 2177:0.889 2178:0.618 2179:0.578 2180:0.489 2181:0.547 2182:0.446 2183:0.578 2184:0.61 2185:0.416 2186:1 2187:0.909 2188:0.345 2189:0.399 2190:0.517 2191:0.498 2192:0.53 2193:0.607 2194:0.393 2195:0.355 2196:0.633 2197:0.462 2198:0.119 2199:0.12 2200:0.232 2201:0.159 2202:0.203 2203:0.231 2204:0.087 2205:0.232 2206:0.13 2207:0.066 2208:0.109 2209:0.067 2210:0.112 2211:0.126 2212:0.051 2213:0.022 2214:0.169 2215:0.107 2216:0.085 2217:0.045 2218:0.034 2219:0.101 2220:0.056 2221:0.052 2222:0.064 2223:0.032 2224:0.038 2225:0.071 2226:0.049 2227:0.071 2228:0.106 2229:0.12 2230:0.118 2231:0.063 2232:0.161 2233:0.079 2234:0.129 2235:0.188 2236:0.103 2237:0.139 2238:0.093 2239:0.13 2240:0.045 2241:0.081 2242:0.304 2243:0.245 2244:0.191 2245:0.296 2246:0.421 2247:0.542 2248:0.322 2249:0.478 2250:0.53 2251:0.342 2252:0.307 2253:0.492 2254:0.464 2255:0.506 2256:0.52 2257:0.383 2258:0.781 2259:0.456 2260:0.636 2261:0.452 2262:0.901 2263:0.73 2264:0.678 2265:0.855 2266:0.936 2267:1 2268:0.954 2269:0.909 2270:0.832 2271:0.757 2272:0.639 2273:0.859 2274:0.676 2275:0.735 2276:0.798 2277:0.642 2278:0.668 2279:0.539 2280:0.522 2281:0.64 2282:0.616 2283:0.581 2284:0.56 2285:0.612 2286:0.572 2287:0.589 2288:0.562 2289:0.663 2290:0.561 2291:0.536 2292:0.668 2293:0.594 2294:0.631 2295:0.55 2296:0.673 2297:0.709 2298:0.688 2299:0.673 2300:0.631 2301:0.732 2302:0.624 2303:0.69 2304:0.718 2305:0.747 2306:0.691 2307:0.568 2308:0.606 2309:0.709 2310:0.617 2311:0.537 2312:0.625 2313:0.644 2314:0.645 2315:0.49 2316:0.554 2317:0.499 2318:0.647 2319:0.433 2320:0.457 2321:0.43 2322:0.494 2323:0.412 2324:0.398 2325:0.374 2326:0.363 2327:0.353 2328:0.269 2329:0.377 2330:0.22 2331:0.239 2332:0.177 2333:0.22 2334:0.186 2335:0.155 2336:0.095 2337:0.125 2338:0.115 2339:0.062 2340:0.112 2341:0.099 2342:0.056 2343:0.05 2344:0.048 2345:0.042 2346:0.069 2347:0.02 2348:0.01 2349:0.048 2350:0.038 2351:0.012 2352:0.026 2353:0.026 2354:0.024 2355:0.044 2356:0.017 2357:0.053 2358:0.023 2359:0.029 2360:0.029 2361:0.023 2362:0.031 2363:0.033 2364:0.031 2365:0.033 2366:0.033 2367:0.037 2368:0.042 2369:0.035 2370:0.039 2371:0.041 2372:0.044 2373:0.049 2374:0.048 2375:0.048 2376:0.057 2377:0.054 2378:0.061 2379:0.062 2380:0.067 2381:0.07 2382:0.071 2383:0.077 2384:0.077 2385:0.079 2386:0.086 2387:0.087 2388:0.091 2389:0.098 2390:0.105 2391:0.101 2392:0.103 2393:0.114 2394:0.117 2395:0.119 2396:0.126 2397:0.124 2398:0.131 2399:0.137 2400:0.141 2401:0.138 2402:0.143 2403:0.154 2404:0.154 2405:0.153 2406:0.157 2407:0.175 2408:0.171 2409:0.175 2410:0.184 2411:0.186 2412:0.2 2413:0.224 2414:0.212 2415:0.228 2416:0.247 2417:0.245 2418:0.248 2419:0.258 2420:0.262 2421:0.28 2422:0.288 2423:0.291 2424:0.308 2425:0.325 2426:0.34 2427:0.329 2428:0.324 2429:0.361 2430:0.378 2431:0.379 2432:0.385 2433:0.404 2434:0.441 2435:0.455 2436:0.469 2437:0.501 2438:0.538 2439:0.54 2440:0.594 2441:0.595 2442:0.614 2443:0.64 2444:0.664 2445:0.682 2446:0.687 2447:0.7 2448:0.737 2449:0.759 2450:0.753 2451:0.799 2452:0.82 2453:0.778 2454:0.814 2455:0.882 2456:0.858 2457:0.838 2458:0.883 2459:0.9 2460:0.884 2461:0.936 2462:0.957 2463:0.898 2464:0.922 2465:1 2466:0.969 2467:0.918 2468:0.96 2469:0.987 2470:0.933 2471:0.908 2472:0.955 2473:0.924 2474:0.896 2475:0.939 2476:0.947 2477:0.887 2478:0.917 2479:0.929 2480:0.854 2481:0.854 2482:0.907 2483:0.837 2484:0.802 2485:0.84 2486:0.802 2487:0.744 2488:0.767 2489:0.745 2490:0.72 2491:0.693 2492:0.684 2493:0.668 2494:0.649 2495:0.598 2496:0.622 2497:0.609 2498:0.568 2499:0.566 2500:0.563 2501:0.547 2502:0.546 2503:0.528 2504:0.532 2505:0.535 2506:0.53 2507:0.511 2508:0.5 2509:0.508 2510:0.485 2511:0.475 2512:0.457 2513:0.458 2514:0.452 2515:0.405 2516:0.431 2517:0.435 2518:0.396 2519:0.383 2520:0.392 2521:0.383 2522:0.356 2523:0.357 2524:0.368 2525:0.328 2526:0.315 2527:0.322 2528:0.297 2529:0.273 2530:0.255 2531:0.252 2532:0.231 2533:0.229 2534:0.221 2535:0.209 2536:0.196 2537:0.201 2538:0.199 2539:0.187 2540:0.176 2541:0.173 2542:0.16 2543:0.147 2544:0.146 2545:0.142 2546:0.127 2547:0.128 2548:0.116 2549:0.108 2550:0.115 2551:0.096 2552:0.089 2553:0.085 2554:0.087 2555:0.068 2556:0.069 2557:0.074 2558:0.059 2559:0.053 2560:0.055 2561:0.067 2562:0.056 2563:0.053 2564:0.036 2565:0.041 2566:0.028 2567:0.039 2568:0.036 2569:0.05 2570:0.04 2571:0.025 2572:0.027 2573:0.151 2574:0.134 2575:0.139 2576:0.14 2577:0.115 2578:0.132 2579:0.148 2580:0.168 2581:0.157 2582:0.165 2583:0.203 2584:0.19 2585:0.188 2586:0.195 2587:0.191 2588:0.212 2589:0.238 2590:0.248 2591:0.277 2592:0.251 2593:0.26 2594:0.318 2595:0.327 2596:0.341 2597:0.337 2598:0.335 2599:0.36 2600:0.404 2601:0.35 2602:0.383 2603:0.416 2604:0.452 2605:0.426 2606:0.45 2607:0.442 2608:0.491 2609:0.492 2610:0.519 2611:0.503 2612:0.54 2613:0.549 2614:0.494 2615:0.572 2616:0.566 2617:0.53 2618:0.595 2619:0.624 2620:0.606 2621:0.64 2622:0.634 2623:0.645 2624:0.65 2625:0.654 2626:0.701 2627:0.658 2628:0.705 2629:0.736 2630:0.702 2631:0.745 2632:0.772 2633:0.792 2634:0.818 2635:0.817 2636:0.849 2637:0.84 2638:0.842 2639:0.896 2640:0.894 2641:0.882 2642:0.914 2643:0.921 2644:0.856 2645:0.877 2646:0.873 2647:0.84 2648:0.865 2649:0.817 2650:0.852 2651:0.86 2652:0.861 2653:0.848 2654:0.897 2655:0.822 2656:0.826 2657:0.863 2658:0.797 2659:0.796 2660:0.844 2661:0.844 2662:0.814 2663:0.92 2664:0.922 2665:0.897 2666:0.91 2667:1 2668:0.969 2669:0.862 2670:0.935 2671:0.932 2672:0.894 2673:0.928 2674:0.885 2675:0.819 2676:0.896 2677:0.844 2678:0.876 2679:0.878 2680:0.739 2681:0.845 2682:0.9 2683:0.802 2684:0.83 2685:0.818 2686:0.799 2687:0.842 2688:0.926 2689:0.848 2690:0.8 2691:0.824 2692:0.844 2693:0.87 2694:0.853 2695:0.828 2696:0.855 2697:0.877 2698:0.881 2699:0.917 2700:0.819 2701:0.771 2702:0.906 2703:0.864 2704:0.807 2705:0.818 2706:0.8 2707:0.794 2708:0.804 2709:0.754 2710:0.705 2711:0.783 2712:0.743 2713:0.701 2714:0.663 2715:0.707 2716:0.684 2717:0.651 2718:0.671 2719:0.653 2720:0.6 2721:0.612 2722:0.559 2723:0.573 2724:0.524 2725:0.485 2726:0.451 2727:0.497 2728:0.466 2729:0.453 2730:0.411 2731:0.361 2732:0.382 2733:0.352 2734:0.346 2735:0.335 2736:0.295 2737:0.331 2738:0.319 2739:0.196 2740:0.254 2741:0.272 2742:0.195 2743:0.228 2744:0.248 2745:0.244 2746:0.204 2747:0.141 2748:0.156 2749:0.101 2750:0.199 2751:0.122 2752:0.142 2753:0.117 2754:0.151 2755:0.116 2756:0.118 2757:0.136 2758:0.104 2759:0.106 2760:0.069 2761:0.063 2762:0.077 2763:0.032 2764:0.076 2765:0.042 2766:0.039 2767:0.065 2768:0.054 2769:0.029 2770:0.089 2771:0.047 2772:0.037 2773:0.05 2774:0.049 2775:0.052 2776:0.062 2777:0.006 2778:0.062 2779:0.04 2780:0.044 2781:0.082 2782:0.085 2783:0.049 2784:0.064 2785:0.024 2786:0.027 2787:0.195 2788:0.097 2789:0.09 2790:0.196 2791:0.243 2792:0.148 2793:0.228 2794:0.292 2795:0.107 2796:0.146 2797:0.213 2798:0.247 2799:0.263 2800:0.065 2801:0.247 2802:0.301 2803:0.167 2804:0.202 2805:0.193 2806:0.263 2807:0.239 2808:0.118 2809:0.24 2810:0.378 2811:0.223 2812:0.177 2813:0.27 2814:0.254 2815:0.279 2816:0.275 2817:0.248 2818:0.322 2819:0.282 2820:0.183 2821:0.28 2822:0.361 2823:0.342 2824:0.269 2825:0.226 2826:0.341 2827:0.419 2828:0.261 2829:0.372 2830:0.419 2831:0.378 2832:0.264 2833:0.371 2834:0.376 2835:0.308 2836:0.37 2837:0.372 2838:0.434 2839:0.348 2840:0.241 2841:0.187 2842:0.384 2843:0.446 2844:0.281 2845:0.347 2846:0.309 2847:0.37 2848:0.453 2849:0.353 2850:0.417 2851:0.679 2852:0.496 2853:0.548 2854:0.511 2855:0.633 2856:0.597 2857:0.534 2858:0.648 2859:0.759 2860:0.604 2861:0.611 2862:0.664 2863:0.652 2864:0.618 2865:0.688 2866:0.596 2867:0.726 2868:0.749 2869:0.621 2870:0.441 2871:0.728 2872:0.682 2873:0.571 2874:0.669 2875:0.856 2876:0.781 2877:0.749 2878:0.568 2879:0.677 2880:0.794 2881:0.79 2882:0.728 2883:0.853 2884:0.75 2885:0.646 2886:1 2887:0.886 2888:0.506 2889:0.804 2890:0.587 2891:0.632 2892:0.606 2893:0.695 2894:0.438 2895:0.536 2896:0.659 2897:0.425 2898:0.764 2899:0.578 2900:0.585 2901:0.563 2902:0.551 2903:0.634 2904:0.511 2905:0.437 2906:0.504 2907:0.689 2908:0.514 2909:0.406 2910:0.643 2911:0.288 2912:0.641 2913:0.486 2914:0.315 2915:0.648 2916:0.714 2917:0.539 2918:0.224 2919:0.522 2920:0.569 2921:0.467 2922:0.278 2923:0.432 2924:0.639 2925:0.666 2926:0.506 2927:0.411 2928:0.624 2929:0.625 2930:0.5 2931:0.336 2932:0.611 2933:0.869 2934:0.602 2935:0.366 2936:0.35 2937:0.598 2938:0.328 2939:0.246 2940:0.297 2941:0.603 2942:0.533 2943:0.568 2944:0.447 2945:0.427 2946:0.8 2947:0.456 2948:0.404 2949:0.427 2950:0.303 2951:0.556 2952:0.528 2953:0.486 2954:0.506 2955:0.786 2956:0.559 2957:0.356 2958:0.203 2959:0.794 2960:0.734 2961:0.163 2962:0.521 2963:0.576 2964:0.927 2965:0.556 2966:0.536 2967:0.451 2968:0.365 2969:0.216 2970:0.161 2971:0.403 2972:0.411 2973:0.481 2974:0.041 2975:0.167 2976:0.387 2977:0.904 2978:0.552 2979:0.324 2980:0.348 2981:0.712 2982:0.463 2983:0.029 2984:0.417 2985:0.456 2986:0.116 2987:0.239 2988:0.207 2989:0.132 2990:0.069 2991:0.37 2992:0.017 2993:0.109 2994:0.215 2995:0.078 2996:0.172 2997:0.301 2998:0.227 2999:0.096 3000:0.107 3001:0.154 3002:0.06 3003:0.081 3004:0.051 3005:0.07 3006:0.004 3007:0.034 3008:0.094 3009:0.137 3010:0.044 3011:0.138 3012:0.118 3013:0.127 3014:0.11 3015:0.04 3016:0.056 3017:0.103 3018:0.117 3019:0.159 3020:0.127 3021:0.164 3022:0.123 3023:0.116 3024:0.215 3025:0.06 3026:0.297 3027:0.065 3028:0.165 3029:0.09 3030:0.09 3031:0.088 3032:0.21 3033:0.271 3034:0.376 3035:0.358 3036:0.125 3037:0.289 3038:0.305 3039:0.102 3040:0.489 3041:0.484 3042:0.446 3043:0.487 3044:0.613 3045:1 3046:0.093 3047:0.735 3048:0.238 3049:0.291 3050:0.516 3051:0.474 3052:0.535 3053:0.598 3054:0.61 3055:0.665 3056:0.476 3057:0.637 3058:0.48 3059:0.408 3060:0.377 3061:0.181 3062:0.255 3063:0.416 3064:0.162 3065:0.314 3066:0.321 3067:0.288 3068:0.305 3069:0.281 3070:0.124 3071:0.299 3072:0.247 3073:0.232 3074:0.299 3075:0.159 3076:0.247 3077:0.336 3078:0.39 3079:0.363 3080:0.422 3081:0.324 3082:0.202 3083:0.24 3084:0.414 3085:0.213 3086:0.195 3087:0.159 3088:0.29 3089:0.123 3090:0.397 3091:0.375 3092:0.117 3093:0.313 3094:0.265 3095:0.198 3096:0.215 3097:0.342 3098:0.067 3099:0.133 3100:0.025 3101:0.132 3102:0.088 3103:0.215 3104:0.175 3105:0.078 3106:0.184 3107:0.124 3108:0.174 3109:0.201 3110:0.382 3111:0.066 3112:0.08 3113:0.03 3114:0.192 3115:0.063 3116:0.127 3117:0.155 3118:0.115 3119:0.137 3120:0.089 3121:0.165 3122:0.066 3123:0.083 3124:0.07 3125:0.014 3126:0.036 3127:0.059 3128:0.031 3129:0.005 3130:0.019 3131:0.045 3132:0.012 3133:0.023 3134:0.012 3135:0.011 3136:0.033 3137:0.006 3138:0.029 3139:0.016 3140:0.022 3141:0.037 3142:0.028 3143:0.027 3144:0.019 3145:0.004 3146:0.004 3147:0.003 3148:0.007 3149:0.003 3150:0.004 3151:0.004 3152:0.007 3153:0.005 3154:0.004 3155:0.007 3156:0.012 3157:0.012 3158:0.011 3159:0.015 3160:0.012 3161:0.012 3162:0.015 3163:0.015 3164:0.019 3165:0.017 3166:0.023 3167:0.021 3168:0.02 3169:0.022 3170:0.021 3171:0.036 3172:0.026 3173:0.025 3174:0.03 3175:0.029 3176:0.032 3177:0.037 3178:0.033 3179:0.048 3180:0.047 3181:0.05 3182:0.054 3183:0.056 3184:0.06 3185:0.077 3186:0.074 3187:0.079 3188:0.076 3189:0.077 3190:0.088 3191:0.084 3192:0.088 3193:0.095 3194:0.095 3195:0.104 3196:0.114 3197:0.117 3198:0.127 3199:0.133 3200:0.133 3201:0.147 3202:0.151 3203:0.165 3204:0.173 3205:0.182 3206:0.193 3207:0.203 3208:0.208 3209:0.22 3210:0.227 3211:0.249 3212:0.257 3213:0.265 3214:0.283 3215:0.3 3216:0.307 3217:0.317 3218:0.33 3219:0.345 3220:0.375 3221:0.39 3222:0.401 3223:0.418 3224:0.458 3225:0.479 3226:0.482 3227:0.503 3228:0.53 3229:0.547 3230:0.589 3231:0.62 3232:0.616 3233:0.638 3234:0.666 3235:0.69 3236:0.705 3237:0.742 3238:0.733 3239:0.755 3240:0.781 3241:0.796 3242:0.783 3243:0.801 3244:0.824 3245:0.863 3246:0.878 3247:0.891 3248:0.901 3249:0.929 3250:0.927 3251:0.938 3252:0.986 3253:0.973 3254:0.951 3255:1 3256:0.974 3257:0.959 3258:0.982 3259:0.964 3260:0.944 3261:0.952 3262:0.938 3263:0.913 3264:0.905 3265:0.881 3266:0.866 3267:0.838 3268:0.846 3269:0.84 3270:0.791 3271:0.797 3272:0.814 3273:0.758 3274:0.753 3275:0.787 3276:0.76 3277:0.731 3278:0.773 3279:0.748 3280:0.746 3281:0.763 3282:0.756 3283:0.737 3284:0.728 3285:0.72 3286:0.723 3287:0.709 3288:0.7 3289:0.706 3290:0.683 3291:0.681 3292:0.682 3293:0.665 3294:0.662 3295:0.66 3296:0.647 3297:0.648 3298:0.644 3299:0.617 3300:0.616 3301:0.609 3302:0.585 3303:0.582 3304:0.595 3305:0.569 3306:0.559 3307:0.571 3308:0.552 3309:0.542 3310:0.526 3311:0.525 3312:0.512 3313:0.479 3314:0.485 3315:0.465 3316:0.435 3317:0.428 3318:0.41 3319:0.407 3320:0.387 3321:0.368 3322:0.348 3323:0.332 3324:0.316 3325:0.318 3326:0.312 3327:0.287 3328:0.278 3329:0.278 3330:0.272 3331:0.246 3332:0.238 3333:0.243 3334:0.226 3335:0.221 3336:0.217 3337:0.186 3338:0.184 3339:0.183 3340:0.185 3341:0.164 3342:0.155 3343:0.174 3344:0.151 3345:0.137 3346:0.13 3347:0.13 3348:0.111 3349:0.114 3350:0.112 3351:0.11 3352:0.096 3353:0.089 3354:0.096 3355:0.096 3356:0.078 3357:0.078 3358:0.088 3359:0.146 3360:0.131 3361:0.157 3362:0.132 3363:0.14 3364:0.168 3365:0.16 3366:0.167 3367:0.181 3368:0.186 3369:0.19 3370:0.203 3371:0.222 3372:0.216 3373:0.252 3374:0.256 3375:0.269 3376:0.279 3377:0.282 3378:0.316 3379:0.321 3380:0.324 3381:0.358 3382:0.351 3383:0.378 3384:0.41 3385:0.383 3386:0.42 3387:0.415 3388:0.427 3389:0.444 3390:0.455 3391:0.468 3392:0.481 3393:0.497 3394:0.486 3395:0.492 3396:0.524 3397:0.537 3398:0.524 3399:0.565 3400:0.623 3401:0.582 3402:0.593 3403:0.626 3404:0.647 3405:0.655 3406:0.651 3407:0.667 3408:0.697 3409:0.694 3410:0.716 3411:0.729 3412:0.73 3413:0.743 3414:0.799 3415:0.785 3416:0.791 3417:0.875 3418:0.859 3419:0.85 3420:0.915 3421:0.881 3422:0.944 3423:0.949 3424:0.906 3425:0.935 3426:0.964 3427:0.907 3428:0.95 3429:1 3430:0.952 3431:0.983 3432:0.95 3433:0.89 3434:0.941 3435:0.951 3436:0.92 3437:0.927 3438:0.888 3439:0.863 3440:0.888 3441:0.849 3442:0.796 3443:0.857 3444:0.835 3445:0.792 3446:0.78 3447:0.776 3448:0.792 3449:0.79 3450:0.729 3451:0.772 3452:0.711 3453:0.662 3454:0.697 3455:0.626 3456:0.599 3457:0.59 3458:0.582 3459:0.532 3460:0.507 3461:0.479 3462:0.46 3463:0.418 3464:0.44 3465:0.429 3466:0.357 3467:0.365 3468:0.383 3469:0.334 3470:0.371 3471:0.367 3472:0.358 3473:0.372 3474:0.346 3475:0.307 3476:0.356 3477:0.346 3478:0.339 3479:0.354 3480:0.327 3481:0.307 3482:0.337 3483:0.31 3484:0.329 3485:0.291 3486:0.32 3487:0.354 3488:0.313 3489:0.342 3490:0.366 3491:0.299 3492:0.318 3493:0.353 3494:0.264 3495:0.334 3496:0.368 3497:0.286 3498:0.28 3499:0.327 3500:0.299 3501:0.294 3502:0.274 3503:0.271 3504:0.297 3505:0.286 3506:0.286 3507:0.296 3508:0.247 3509:0.284 3510:0.263 3511:0.255 3512:0.268 3513:0.291 3514:0.233 3515:0.249 3516:0.254 3517:0.225 3518:0.209 3519:0.195 3520:0.163 3521:0.194 3522:0.142 3523:0.145 3524:0.15 3525:0.135 3526:0.164 3527:0.134 3528:0.135 3529:0.117 3530:0.154 3531:0.127 3532:0.16 3533:0.17 3534:0.173 3535:0.168 3536:0.132 3537:0.126 3538:0.128 3539:0.166 3540:0.142 3541:0.138 3542:0.147 3543:0.14 3544:0.113 3545:0.122 3546:0.153 3547:0.092 3548:0.081 3549:0.099 3550:0.098 3551:0.091 3552:0.103 3553:0.09 3554:0.089 3555:0.098 3556:0.068 3557:0.063 3558:0.063 3559:0.091 3560:0.073 3561:0.086 3562:0.088 3563:0.056 3564:0.064 3565:0.094 3566:0.08 3567:0.059 3568:0.07 3569:0.047 3570:0.036 3571:0.07 3572:0.021 3573:0.035 3574:0.031 3575:0.063 3576:0.043 3577:0.036 3578:0.011 3579:0.05 3580:0.049 3581:0.049 3582:0.081 3583:0.1 3584:0.059 3585:0.052 3586:0.05 3587:0.061 3588:0.058 3589:0.063 3590:0.063 3591:0.071 3592:0.05 3593:0.053 3594:0.043 3595:0.07 3596:0.066 3597:0.064 3598:0.072 3599:0.059 3600:0.084 3601:0.095 3602:0.077 3603:0.128 3604:0.088 3605:0.083 3606:0.082 3607:0.09 3608:0.12 3609:0.129 3610:0.119 3611:0.148 3612:0.172 3613:0.158 3614:0.16 3615:0.193 3616:0.206 3617:0.171 3618:0.174 3619:0.212 3620:0.223 3621:0.211 3622:0.248 3623:0.242 3624:0.283 3625:0.293 3626:0.267 3627:0.299 3628:0.289 3629:0.311 3630:0.303 3631:0.289 3632:0.297 3633:0.31 3634:0.359 3635:0.372 3636:0.347 3637:0.393 3638:0.439 3639:0.415 3640:0.445 3641:0.5 3642:0.5 3643:0.524 3644:0.543 3645:0.558 3646:0.585 3647:0.647 3648:0.675 3649:0.647 3650:0.648 3651:0.716 3652:0.723 3653:0.705 3654:0.739 3655:0.7 3656:0.729 3657:0.73 3658:0.747 3659:0.835 3660:0.783 3661:0.796 3662:0.841 3663:0.833 3664:0.902 3665:0.924 3666:0.91 3667:0.928 3668:1 3669:0.917 3670:0.956 3671:0.961 3672:0.962 3673:0.963 3674:0.896 3675:0.999 3676:0.956 3677:0.856 3678:0.885 3679:0.903 3680:0.938 3681:0.881 3682:0.904 3683:0.865 3684:0.887 3685:0.82 3686:0.845 3687:0.889 3688:0.861 3689:0.874 3690:0.815 3691:0.7 3692:0.748 3693:0.714 3694:0.675 3695:0.668 3696:0.646 3697:0.609 3698:0.627 3699:0.586 3700:0.577 3701:0.647 3702:0.582 3703:0.567 3704:0.619 3705:0.559 3706:0.525 3707:0.52 3708:0.498 3709:0.502 3710:0.488 3711:0.496 3712:0.55 3713:0.499 3714:0.466 3715:0.499 3716:0.458 3717:0.465 3718:0.435 3719:0.402 3720:0.425 3721:0.433 3722:0.402 3723:0.465 3724:0.393 3725:0.322 3726:0.425 3727:0.372 3728:0.379 3729:0.351 3730:0.281 3731:0.29 3732:0.341 3733:0.343 3734:0.401 3735:0.365 3736:0.304 3737:0.322 3738:0.344 3739:0.291 3740:0.311 3741:0.266 3742:0.322 3743:0.409 3744:0.269 3745:0.312 3746:0.354 3747:0.323 3748:0.247 3749:0.552 3750:0.35 3751:0.351 3752:0.26 3753:0.203 3754:0.333 3755:0.333 3756:0.173 3757:0.395 3758:0.541 3759:0.806 3760:0.046 3761:0.227 3762:0.337 3763:0.234 3764:0.218 3765:0.221 3766:0.294 3767:0.134 3768:0.52 3769:0.048 3770:0.187 3771:0.108 3772:0.119 3773:0.164 3774:0.151 3775:0.095 3776:0.105 3777:0.048 3778:0.063 3779:0.127 3780:0.101 3781:0.057 3782:0.122 3783:0.022 3784:0.053 3785:0.027 3786:0.014 3787:0.05 3788:0.043 3789:0.081 3790:0.106 3791:0.081 3792:0.036 3793:0.043 3794:0.052 3795:0.133 3796:0.048 3797:0.053 3798:0.119 3799:0.094 3800:0.093 3801:0.113 3802:0.034 3803:0.15 3804:0.182 3805:0.075 3806:0.145 3807:0.163 3808:0.107 3809:0.201 3810:0.153 3811:0.12 3812:0.152 3813:0.224 3814:0.184 3815:0.145 3816:0.198 3817:0.23 3818:0.255 3819:0.197 3820:0.334 3821:0.544 3822:0.475 3823:0.294 3824:0.395 3825:0.486 3826:0.238 3827:0.578 3828:0.491 3829:0.131 3830:1 3831:0.904 3832:0.617 3833:0.286 3834:0.581 3835:0.542 3836:0.43 3837:0.415 3838:0.597 3839:0.222 3840:0.597 3841:0.411 3842:0.463 3843:0.475 3844:0.441 3845:0.387 3846:0.34 3847:0.37 3848:0.373 3849:0.25 3850:0.302 3851:0.309 3852:0.278 3853:0.246 3854:0.267 3855:0.333 3856:0.303 3857:0.274 3858:0.262 3859:0.336 3860:0.346 3861:0.303 3862:0.329 3863:0.344 3864:0.308 3865:0.34 3866:0.34 3867:0.347 3868:0.354 3869:0.385 3870:0.381 3871:0.336 3872:0.326 3873:0.331 3874:0.281 3875:0.343 3876:0.332 3877:0.287 3878:0.32 3879:0.312 3880:0.341 3881:0.296 3882:0.251 3883:0.27 3884:0.23 3885:0.242 3886:0.168 3887:0.234 3888:0.199 3889:0.164 3890:0.171 3891:0.148 3892:0.158 3893:0.153 3894:0.116 3895:0.118 3896:0.152 3897:0.093 3898:0.11 3899:0.118 3900:0.059 3901:0.074 3902:0.072 3903:0.07 3904:0.056 3905:0.06 3906:0.025 3907:0.052 3908:0.026 3909:0.023 3910:0.028 3911:0.002 3912:0.01 3913:0.018 3914:0.013 3915:0.003 3916:0.015 3917:0.007 3918:0.015 3919:0.011 3920:0.016 3921:0.008 3922:0.012 3923:0.008 3924:0.011 3925:0.008 3926:0.01 3927:0.011 3928:0.025 3929:0.024 3930:0.025 3931:0.006 3932:0.007 3933:0.012 3934:0.007 3935:0.012 3936:0.007 3937:0.004 3938:0.01 3939:0.004 3940:0.013 3941:0.014 3942:0.005 3943:0.015 3944:0.01 3945:0.013 3946:0.016 3947:0.008 3948:0.018 3949:0.016 3950:0.011 3951:0.019 3952:0.012 3953:0.019 3954:0.028 3955:0.017 3956:0.026 3957:0.031 3958:0.022 3959:0.036 3960:0.033 3961:0.024 3962:0.039 3963:0.027 3964:0.034 3965:0.051 3966:0.035 3967:0.058 3968:0.047 3969:0.038 3970:0.062 3971:0.054 3972:0.053 3973:0.071 3974:0.055 3975:0.083 3976:0.077 3977:0.072 3978:0.087 3979:0.088 3980:0.087 3981:0.102 3982:0.094 3983:0.108 3984:0.114 3985:0.114 3986:0.142 3987:0.134 3988:0.141 3989:0.155 3990:0.149 3991:0.169 3992:0.177 3993:0.17 3994:0.194 3995:0.197 3996:0.191 3997:0.223 3998:0.226 3999:0.236 4000:0.244 4001:0.259 4002:0.28 4003:0.284 4004:0.29 4005:0.321 4006:0.331 4007:0.353 4008:0.385 4009:0.376 4010:0.422 4011:0.434 4012:0.433 4013:0.479 4014:0.499 4015:0.505 4016:0.539 4017:0.559 4018:0.55 4019:0.586 4020:0.613 4021:0.637 4022:0.64 4023:0.667 4024:0.663 4025:0.669 4026:0.688 4027:0.719 4028:0.71 4029:0.721 4030:0.734 4031:0.727 4032:0.778 4033:0.779 4034:0.78 4035:0.785 4036:0.782 4037:0.782 4038:0.811 4039:0.77 4040:0.806 4041:0.833 4042:0.762 4043:0.788 4044:0.778 4045:0.749 4046:0.755 4047:0.771 4048:0.746 4049:0.722 4050:0.711 4051:0.727 4052:0.7 4053:0.686 4054:0.699 4055:0.692 4056:0.646 4057:0.664 4058:0.661 4059:0.627 4060:0.638 4061:0.65 4062:0.629 4063:0.608 4064:0.613 4065:0.592 4066:0.577 4067:0.581 4068:0.573 4069:0.554 4070:0.538 4071:0.535 4072:0.521 4073:0.542 4074:0.534 4075:0.527 4076:0.522 4077:0.523 4078:0.498 4079:0.518 4080:0.509 4081:0.475 4082:0.489 4083:0.473 4084:0.48 4085:0.475 4086:0.442 4087:0.437 4088:0.434 4089:0.407 4090:0.415 4091:0.402 4092:0.366 4093:0.38 4094:0.374 4095:0.332 4096:0.344 4097:0.345 4098:0.319 4099:0.296 4100:0.295 4101:0.276 4102:0.283 4103:0.262 4104:0.231 4105:0.242 4106:0.231 4107:0.214 4108:0.21 4109:0.192 4110:0.199 4111:0.189 4112:0.169 4113:0.174 4114:0.173 4115:0.135 4116:0.152 4117:0.156 4118:0.148 4119:0.144 4120:0.148 4121:0.112 4122:0.129 4123:0.131 4124:0.115 4125:0.112 4126:0.1 4127:0.1 4128:0.111 4129:0.093 4130:0.079 4131:0.099 4132:0.069 4133:0.081 4134:0.073 4135:0.053 4136:0.071 4137:0.052 4138:0.041 4139:0.041 4140:0.057 4141:0.046 4142:0.054 4143:0.035 4144:0.045 4145:0.084 4146:0.056 4147:0.044 4148:0.085 4149:0.069 4150:0.087 4151:0.096 4152:0.072 4153:0.087 4154:0.075 4155:0.08 4156:0.09 4157:0.084 4158:0.112 4159:0.115 4160:0.101 4161:0.132 4162:0.121 4163:0.145 4164:0.148 4165:0.128 4166:0.172 4167:0.16 4168:0.161 4169:0.165 4170:0.173 4171:0.174 4172:0.197 4173:0.184 4174:0.221 4175:0.205 4176:0.198 4177:0.239 4178:0.202 4179:0.22 4180:0.247 4181:0.231 4182:0.273 4183:0.274 4184:0.281 4185:0.31 4186:0.284 4187:0.304 4188:0.321 4189:0.335 4190:0.344 4191:0.373 4192:0.34 4193:0.354 4194:0.365 4195:0.373 4196:0.371 4197:0.366 4198:0.377 4199:0.39 4200:0.378 4201:0.416 4202:0.415 4203:0.457 4204:0.447 4205:0.424 4206:0.483 4207:0.475 4208:0.462 4209:0.507 4210:0.464 4211:0.5 4212:0.52 4213:0.499 4214:0.533 4215:0.569 4216:0.523 4217:0.545 4218:0.516 4219:0.481 4220:0.531 4221:0.507 4222:0.482 4223:0.529 4224:0.486 4225:0.505 4226:0.48 4227:0.447 4228:0.479 4229:0.437 4230:0.465 4231:0.444 4232:0.46 4233:0.441 4234:0.452 4235:0.404 4236:0.377 4237:0.414 4238:0.354 4239:0.37 4240:0.335 4241:0.314 4242:0.322 4243:0.288 4244:0.331 4245:0.3 4246:0.268 4247:0.293 4248:0.262 4249:0.226 4250:0.247 4251:0.237 4252:0.175 4253:0.192 4254:0.211 4255:0.191 4256:0.193 4257:0.191 4258:0.188 4259:0.177 4260:0.161 4261:0.185 4262:0.203 4263:0.149 4264:0.163 4265:0.141 4266:0.15 4267:0.144 4268:0.13 4269:0.15 4270:0.147 4271:0.158 4272:0.14 4273:0.122 4274:0.149 4275:0.138 4276:0.151 4277:0.144 4278:0.099 4279:0.146 4280:0.129 4281:0.133 4282:0.174 4283:0.146 4284:0.121 4285:0.152 4286:0.148 4287:0.108 4288:0.122 4289:0.108 4290:0.13 4291:0.141 4292:0.12 4293:0.118 4294:0.11 4295:0.086 4296:0.106 4297:0.121 4298:0.078 4299:0.116 4300:0.108 4301:0.049 4302:0.131 4303:0.12 4304:0.099 4305:0.088 4306:0.077 4307:0.09 4308:0.088 4309:0.035 4310:0.04 4311:0.052 4312:0.055 4313:0.075 4314:0.051 4315:0.044 4316:0.047 4317:0.069 4318:0.06 4319:0.033 4320:0.024 4321:0.059 4322:0.061 4323:0.061 4324:0.051 4325:0.038 4326:0.025 4327:0.064 4328:0.05 4329:0.036 4330:0.045 4331:0.045 4332:0.011 4333:0.055 4334:0.024 4335:0.016 4336:0.047 4337:0.034 4338:0.021 4339:0.062 4340:0.022 4341:0.011 4342:0.045 4343:0.012 4344:0.047 4345:0.036 4346:0.021 4347:0.041 4348:0.038 4349:0.032 4350:0.032 4351:0.021 4352:0.025 4353:0.029 4354:0.049 4355:0.003 4356:0.026 4357:0.013 4358:0.047 4359:0.023 4360:0.035 4361:0.013 4362:0.045 4363:0.006 4364:0.024 4365:0.047 4366:0.019 4367:0.019 4368:0.016 4369:0.04 4370:0.048 4371:0.057 4372:0.035 4373:0.035 4374:0.06 4375:0.028 4376:0.018 4377:0.034 4378:0.007 4379:0.058 4380:0.012 4381:0.03 4382:0.07 4383:0.042 4384:0.03 4385:0.06 4386:0.043 4387:0.042 4388:0.02 4389:0.035 4390:0.074 4391:0.096 4392:0.093 4393:0.063 4394:0.114 4395:0.109 4396:0.078 4397:0.064 4398:0.06 4399:0.082 4400:0.119 4401:0.113 4402:0.096 4403:0.099 4404:0.103 4405:0.091 4406:0.095 4407:0.124 4408:0.102 4409:0.107 4410:0.121 4411:0.07 4412:0.146 4413:0.158 4414:0.159 4415:0.138 4416:0.153 4417:0.152 4418:0.145 4419:0.154 4420:0.151 4421:0.197 4422:0.16 4423:0.182 4424:0.216 4425:0.168 4426:0.246 4427:0.201 4428:0.187 4429:0.244 4430:0.236 4431:0.279 4432:0.237 4433:0.264 4434:0.264 4435:0.256 4436:0.304 4437:0.332 4438:0.318 4439:0.334 4440:0.303 4441:0.275 4442:0.321 4443:0.362 4444:0.311 4445:0.325 4446:0.326 4447:0.398 4448:0.338 4449:0.297 4450:0.384 4451:0.42 4452:0.355 4453:0.397 4454:0.422 4455:0.392 4456:0.366 4457:0.41 4458:0.393 4459:0.382 4460:0.374 4461:0.407 4462:0.397 4463:0.334 4464:0.391 4465:0.35 4466:0.362 4467:0.345 4468:0.359 4469:0.357 4470:0.357 4471:0.223 4472:0.278 4473:0.297 4474:0.336 4475:0.291 4476:0.302 4477:0.229 4478:0.233 4479:0.209 4480:0.193 4481:0.252 4482:0.178 4483:0.205 4484:0.187 4485:0.173 4486:0.235 4487:0.249 4488:0.183 4489:0.199 4490:0.177 4491:0.205 4492:0.154 4493:0.185 4494:0.103 4495:0.172 4496:0.187 4497:0.134 4498:0.174 4499:0.19 4500:0.191 4501:0.183 4502:0.171 4503:0.083 4504:0.168 4505:0.151 4506:0.128 4507:0.116 4508:0.18 4509:0.134 4510:0.043 4511:0.125 4512:0.082 4513:0.152 4514:0.151 4515:0.141 4516:0.185 4517:0.148 4518:0.134 4519:0.154 4520:0.093 4521:0.105 4522:0.068 4523:0.137 4524:0.025 4525:0.008 4526:0.255 4527:0.131 4528:0.126 4529:0.148 4530:0.046 4531:0.176 4532:0.108 4533:0.296 4534:0.127 4535:0.34 4536:0.452 4537:0.169 4538:0.266 4539:0.052 4540:0.208 4541:0.243 4542:0.306 4543:0.291 4544:0.833 4545:1 4546:0.43 4547:0.178 4548:0.141 4549:0.093 4550:0.05 4551:0.094 4552:0.195 4553:0.078 4554:0.685 4555:0.161 4556:0.08 4557:0.082 4558:0.15 4559:0.062 4560:0.06 4561:0.154 4562:0.132 4563:0.105 4564:0.068 4565:0.103 4566:0.102 4567:0.054 4568:0.029 4569:0.009 4570:0.051 4571:0.037 4572:0.051 4573:0.037 4574:0.024 4575:0.067 4576:0.079 4577:0.015 4578:0.071 4579:0.031 4580:0.03 4581:0.026 4582:0.078 4583:0.047 4584:0.036 4585:0.081 4586:0.093 4587:0.108 4588:0.067 4589:0.057 4590:0.074 4591:0.063 4592:0.06 4593:0.092 4594:0.145 4595:0.049 4596:0.152 4597:0.165 4598:0.082 4599:0.046 4600:0.091 4601:0.044 4602:0.224 4603:0.117 4604:0.028 4605:0.193 4606:0.122 4607:0.456 4608:0.416 4609:0.387 4610:0.201 4611:0.156 4612:0.28 4613:0.076 4614:0.1 4615:0.453 4616:0.799 4617:1 4618:0.233 4619:0.202 4620:0.074 4621:0.096 4622:0.158 4623:0.093 4624:0.081 4625:0.212 4626:0.707 4627:0.253 4628:0.107 4629:0.226 4630:0.072 4631:0.023 4632:0.042 4633:0.113 4634:0.013 4635:0.173 4636:0.016 4637:0.063 4638:0.024 4639:0.012 4640:0.023 4641:0.038 4642:0.009 4643:0.045 4644:0.072 4645:0.085 4646:0.057 4647:0.037 4648:0.039 4649:0.002 4650:0.034 4651:0.039 4652:0.051 4653:0.069 4654:0.06 4655:0.046 4656:0.079 4657:0.016 4658:0.044 4659:0.03 4660:0.038 4661:0.035 4662:0.087 4663:0.055 4664:0.014 4665:0.035 4666:0.042 4667:0.044 4668:0.081 4669:0.033 4670:0.027 4671:0.018 4672:0.012 4673:0.066 4674:0.036 4675:0.076 4676:0.018 4677:0.038 4678:0.042 4679:0.052 4680:0.076 4681:0.052 4682:0.04 4683:0.019 4684:0.015 4685:0.036 4686:0.027 4687:0.045 4688:0.046 4689:0.023 4690:0.019 4691:0.007 4692:0.019 4693:0.017 4694:0.036 4695:0.014 4696:0.013 4697:0.035 4698:0.01 4699:0.015 4700:0.012 4701:0.005 4702:0.009 4703:0.019 4704:0.016 4705:0.008 4706:0.012 4707:0.019 4708:0.014 4709:0.006 4710:0.008 4711:0.018 4712:0.009 4713:0.02 4714:0.016 4715:0.026 4716:0.023 4717:0.005 4718:0.014 4719:0.002 4720:0.005 4721:0.008 4722:0.009 4723:0.011 4724:0.005 4725:0.017 4726:0.006 4727:0.004 4728:0.006 4729:0.005 4730:0.004 4731:0.002 4732:0.008 4733:0.006 4734:0.003 4735:0.004 4736:0.01 4737:0.012 4738:0.002 4739:0.01 4740:0.007 4741:0.001 4742:0.01 4743:0.007 4744:0.007 4745:0.008 4746:0.006 4747:0.005 4748:0.006 4749:0.002 4750:0.002 4751:0.007 4752:0.003 4753:0.01 4754:0.012 4755:0.002 4756:0.003 4757:0.009 4758:0.009 4759:0.004 4760:0.002 4761:0.003 4762:0.01 4763:0.007 4764:0.014 4765:0.009 4766:0.001 4767:0.005 4768:0.011 4769:0.001 4770:0.006 4771:0.001 4772:0.012 4773:0.009 4774:0.01 4775:0.002 4776:0.012 4777:0.022 4778:0.017 4779:0.017 4780:0.015 4781:0.036 4782:0.034 4783:0.02 4784:0.043 4785:0.044 4786:0.033 4787:0.048 4788:0.067 4789:0.035 4790:0.063 4791:0.062 4792:0.062 4793:0.064 4794:0.071 4795:0.086 4796:0.093 4797:0.103 4798:0.116 4799:0.11 4800:0.152 4801:0.145 4802:0.157 4803:0.162 4804:0.174 4805:0.162 4806:0.172 4807:0.203 4808:0.203 4809:0.217 4810:0.216 4811:0.172 4812:0.263 4813:0.276 4814:0.248 4815:0.285 4816:0.289 4817:0.308 4818:0.34 4819:0.338 4820:0.324 4821:0.336 4822:0.361 4823:0.403 4824:0.38 4825:0.363 4826:0.391 4827:0.403 4828:0.409 4829:0.383 4830:0.407 4831:0.396 4832:0.389 4833:0.427 4834:0.404 4835:0.405 4836:0.412 4837:0.379 4838:0.397 4839:0.401 4840:0.41 4841:0.407 4842:0.399 4843:0.371 4844:0.415 4845:0.425 4846:0.401 4847:0.423 4848:0.421 4849:0.379 4850:0.422 4851:0.412 4852:0.404 4853:0.405 4854:0.428 4855:0.396 4856:0.406 4857:0.435 4858:0.426 4859:0.431 4860:0.413 4861:0.414 4862:0.407 4863:0.392 4864:0.412 4865:0.397 4866:0.394 4867:0.417 4868:0.375 4869:0.402 4870:0.399 4871:0.398 4872:0.379 4873:0.363 4874:0.366 4875:0.359 4876:0.36 4877:0.347 4878:0.36 4879:0.337 4880:0.35 4881:0.344 4882:0.328 4883:0.322 4884:0.284 4885:0.308 4886:0.277 4887:0.285 4888:0.265 4889:0.258 4890:0.232 4891:0.24 4892:0.209 4893:0.223 4894:0.204 4895:0.214 4896:0.219 4897:0.204 4898:0.187 4899:0.183 4900:0.174 4901:0.194 4902:0.183 4903:0.168 4904:0.177 4905:0.155 4906:0.143 4907:0.18 4908:0.167 4909:0.158 4910:0.132 4911:0.117 4912:0.123 4913:0.109 4914:0.096 4915:0.103 4916:0.095 4917:0.072 4918:0.07 4919:0.103 4920:0.085 4921:0.093 4922:0.078 4923:0.071 4924:0.077 4925:0.065 4926:0.056 4927:0.056 4928:0.068 4929:0.069 4930:0.055 4931:0.05 4932:0.046 4933:0.042 4934:0.044 4935:0.042 4936:0.046 4937:0.047 4938:0.041 4939:0.058 4940:0.079 4941:0.064 4942:0.077 4943:0.09 4944:0.074 4945:0.091 4946:0.085 4947:0.122 4948:0.088 4949:0.102 4950:0.114 4951:0.106 4952:0.112 4953:0.107 4954:0.128 4955:0.137 4956:0.131 4957:0.144 4958:0.168 4959:0.146 4960:0.181 4961:0.158 4962:0.177 4963:0.19 4964:0.201 4965:0.186 4966:0.249 4967:0.218 4968:0.253 4969:0.27 4970:0.275 4971:0.308 4972:0.306 4973:0.339 4974:0.318 4975:0.344 4976:0.376 4977:0.354 4978:0.358 4979:0.364 4980:0.391 4981:0.377 4982:0.369 4983:0.386 4984:0.397 4985:0.407 4986:0.423 4987:0.45 4988:0.488 4989:0.516 4990:0.484 4991:0.468 4992:0.571 4993:0.558 4994:0.602 4995:0.584 4996:0.557 4997:0.635 4998:0.635 4999:0.588 5000:0.644 5001:0.701 5002:0.643 5003:0.689 5004:0.663 5005:0.631 5006:0.684 5007:0.677 5008:0.68 5009:0.661 5010:0.682 5011:0.671 5012:0.67 5013:0.671 5014:0.621 5015:0.686 5016:0.623 5017:0.673 5018:0.602 5019:0.654 5020:0.642 5021:0.623 5022:0.66 5023:0.574 5024:0.591 5025:0.561 5026:0.578 5027:0.602 5028:0.502 5029:0.523 5030:0.546 5031:0.451 5032:0.458 5033:0.403 5034:0.359 5035:0.432 5036:0.383 5037:0.4 5038:0.351 5039:0.346 5040:0.339 5041:0.315 5042:0.324 5043:0.371 5044:0.329 5045:0.322 5046:0.304 5047:0.315 5048:0.317 5049:0.345 5050:0.335 5051:0.363 5052:0.346 5053:0.369 5054:0.357 5055:0.313 5056:0.303 5057:0.289 5058:0.317 5059:0.307 5060:0.272 5061:0.306 5062:0.312 5063:0.326 5064:0.298 5065:0.304 5066:0.27 5067:0.25 5068:0.323 5069:0.277 5070:0.281 5071:0.314 5072:0.253 5073:0.278 5074:0.299 5075:0.279 5076:0.277 5077:0.277 5078:0.274 5079:0.272 5080:0.25 5081:0.23 5082:0.288 5083:0.283 5084:0.275 5085:0.285 5086:0.265 5087:0.244 5088:0.205 5089:0.253 5090:0.207 5091:0.223 5092:0.22 5093:0.154 5094:0.14 5095:0.148 5096:0.104 5097:0.129 5098:0.156 5099:0.153 5100:0.135 5101:0.092 5102:0.122 5103:0.132 5104:0.114 5105:0.112 5106:0.087 5107:0.13 5108:0.147 5109:0.122 5110:0.099 5111:0.157 5112:0.143 5113:0.166 5114:0.11 5115:0.113 5116:0.094 5117:0.12 5118:0.087 5119:0.097 5120:0.102 5121:0.083 5122:0.115 5123:0.056 5124:0.101 5125:0.078 5126:0.083 5127:0.096 5128:0.058 5129:0.082 5130:0.066 5131:0.097 5132:0.056 5133:0.09 5134:0.119 5135:0.085 5136:0.07 5137:0.036 5138:0.081 5139:0.103 5140:0.087 5141:0.076 5142:0.054 5143:0.051 5144:0.063 5145:0.044 5146:0.009 5147:0.043 5148:0.053 5149:0.033 5150:0.02 5151:0.034 5152:0.052 5153:0.051 5154:0.048 5155:0.045 5156:0.024 5157:0.045 5158:0.057 5159:0.026 5160:0.073 5161:0.059 5162:0.046 5163:0.049 5164:0.042 5165:0.033 5166:0.041 5167:0.052 5168:0.06 5169:0.028 5170:0.033 5171:0.07 5172:0.028 5173:0.042 5174:0.059 5175:0.076 5176:0.075 5177:0.111 5178:0.087 5179:0.092 5180:0.095 5181:0.128 5182:0.086 5183:0.132 5184:0.146 5185:0.149 5186:0.141 5187:0.145 5188:0.156 5189:0.161 5190:0.165 5191:0.146 5192:0.177 5193:0.171 5194:0.179 5195:0.188 5196:0.223 5197:0.206 5198:0.262 5199:0.226 5200:0.232 5201:0.284 5202:0.29 5203:0.286 5204:0.291 5205:0.327 5206:0.303 5207:0.335 5208:0.338 5209:0.331 5210:0.371 5211:0.38 5212:0.419 5213:0.458 5214:0.458 5215:0.493 5216:0.526 5217:0.585 5218:0.585 5219:0.599 5220:0.612 5221:0.614 5222:0.645 5223:0.688 5224:0.713 5225:0.722 5226:0.704 5227:0.763 5228:0.773 5229:0.725 5230:0.763 5231:0.773 5232:0.769 5233:0.804 5234:0.821 5235:0.838 5236:0.863 5237:0.852 5238:0.923 5239:0.877 5240:0.965 5241:0.953 5242:0.912 5243:0.91 5244:0.948 5245:0.929 5246:0.901 5247:1 5248:0.92 5249:0.908 5250:0.938 5251:0.946 5252:0.927 5253:0.914 5254:0.901 5255:0.88 5256:0.848 5257:0.845 5258:0.815 5259:0.74 5260:0.824 5261:0.764 5262:0.745 5263:0.751 5264:0.702 5265:0.702 5266:0.695 5267:0.692 5268:0.689 5269:0.63 5270:0.649 5271:0.666 5272:0.624 5273:0.628 5274:0.632 5275:0.648 5276:0.553 5277:0.61 5278:0.578 5279:0.534 5280:0.552 5281:0.497 5282:0.483 5283:0.503 5284:0.498 5285:0.492 5286:0.473 5287:0.409 5288:0.456 5289:0.454 5290:0.427 5291:0.49 5292:0.405 5293:0.408 5294:0.431 5295:0.417 5296:0.426 5297:0.449 5298:0.356 5299:0.394 5300:0.33 5301:0.376 5302:0.364 5303:0.334 5304:0.387 5305:0.417 5306:0.318 5307:0.347 5308:0.386 5309:0.284 5310:0.27 5311:0.33 5312:0.383 5313:0.35 5314:0.335 5315:0.331 5316:0.367 5317:0.358 5318:0.244 5319:0.401 5320:0.43 5321:0.057 5322:0.258 5323:0.282 5324:0.378 5325:0.275 5326:0.152 5327:0.477 5328:0.379 5329:0.182 5330:0.818 5331:0.77 5332:0.418 5333:0.149 5334:0.198 5335:0.294 5336:0.103 5337:0.171 5338:0.293 5339:0.19 5340:0.6 5341:0.211 5342:0.057 5343:0.056 5344:0.192 5345:0.059 5346:0.121 5347:0.118 5348:0.08 5349:0.179 5350:0.068 5351:0.075 5352:0.028 5353:0.039 5354:0.026 5355:0.035 5356:0.053 5357:0.053 5358:0.079 5359:0.08 5360:0.082 5361:0.092 5362:0.057 5363:0.054 5364:0.042 5365:0.051 5366:0.071 5367:0.043 5368:0.09 5369:0.04 5370:0.119 5371:0.11 5372:0.078 5373:0.161 5374:0.132 5375:0.118 5376:0.15 5377:0.175 5378:0.11 5379:0.145 5380:0.153 5381:0.084 5382:0.15 5383:0.156 5384:0.239 5385:0.15 5386:0.196 5387:0.186 5388:0.229 5389:0.226 5390:0.16 5391:0.324 5392:0.336 5393:0.287 5394:0.11 5395:0.325 5396:0.401 5397:0.372 5398:0.427 5399:0.221 5400:0.542 5401:0.379 5402:0.205 5403:0.47 5404:0.566 5405:0.625 5406:0.518 5407:0.531 5408:0.663 5409:0.51 5410:0.646 5411:0.58 5412:1 5413:0.394 5414:0.559 5415:0.444 5416:0.41 5417:0.415 5418:0.432 5419:0.419 5420:0.457 5421:0.264 5422:0.229 5423:0.336 5424:0.312 5425:0.286 5426:0.316 5427:0.241 5428:0.277 5429:0.351 5430:0.323 5431:0.398 5432:0.347 5433:0.315 5434:0.409 5435:0.354 5436:0.302 5437:0.315 5438:0.337 5439:0.389 5440:0.342 5441:0.355 5442:0.383 5443:0.367 5444:0.36 5445:0.336 5446:0.327 5447:0.321 5448:0.338 5449:0.314 5450:0.275 5451:0.292 5452:0.31 5453:0.302 5454:0.254 5455:0.291 5456:0.266 5457:0.264 5458:0.24 5459:0.256 5460:0.194 5461:0.22 5462:0.153 5463:0.169 5464:0.16 5465:0.139 5466:0.151 5467:0.156 5468:0.142 5469:0.082 5470:0.145 5471:0.101 5472:0.081 5473:0.056 5474:0.112 5475:0.069 5476:0.067 5477:0.061 5478:0.049 5479:0.056 5480:0.03 5481:0.019 5482:0.037 5483:0.035 5484:0.028 5485:0.021 5486:0.013 5487:0.023 5488:0.008 5489:0.003 5490:0.014 5491:0.01 5492:0.008 5493:0.016 5494:0.01 5495:0.004 5496:0.015 5497:0.024 5498:0.022 5499:0.022 5500:0.014 5501:0.028 5502:0.057 5503:0.005 5504:0.007 5505:0.004 5506:0.005 5507:0.008 5508:0.006 5509:0.008 5510:0.009 5511:0.002 5512:0.006 5513:0 5514:0.009 5515:0.006 5516:0.004 5517:0.005 5518:0.006 5519:0.009 5520:0.01 5521:0.012 5522:0.011 5523:0.01 5524:0.009 5525:0.016 5526:0.013 5527:0.021 5528:0.019 5529:0.015 5530:0.018 5531:0.025 5532:0.027 5533:0.03 5534:0.03 5535:0.031 5536:0.029 5537:0.035 5538:0.038 5539:0.04 5540:0.04 5541:0.046 5542:0.049 5543:0.047 5544:0.053 5545:0.057 5546:0.058 5547:0.064 5548:0.061 5549:0.071 5550:0.076 5551:0.083 5552:0.084 5553:0.086 5554:0.086 5555:0.109 5556:0.11 5557:0.116 5558:0.111 5559:0.124 5560:0.139 5561:0.145 5562:0.156 5563:0.167 5564:0.171 5565:0.186 5566:0.198 5567:0.195 5568:0.202 5569:0.235 5570:0.229 5571:0.24 5572:0.257 5573:0.255 5574:0.269 5575:0.285 5576:0.296 5577:0.314 5578:0.326 5579:0.356 5580:0.378 5581:0.388 5582:0.422 5583:0.45 5584:0.465 5585:0.507 5586:0.539 5587:0.578 5588:0.603 5589:0.647 5590:0.647 5591:0.687 5592:0.714 5593:0.734 5594:0.742 5595:0.787 5596:0.787 5597:0.798 5598:0.82 5599:0.823 5600:0.822 5601:0.864 5602:0.867 5603:0.88 5604:0.922 5605:0.901 5606:0.916 5607:0.927 5608:0.936 5609:0.951 5610:0.986 5611:0.966 5612:0.992 5613:0.984 5614:0.976 5615:1 5616:0.995 5617:0.986 5618:0.981 5619:0.997 5620:0.993 5621:0.995 5622:0.987 5623:0.984 5624:0.963 5625:0.943 5626:0.987 5627:0.975 5628:0.947 5629:0.959 5630:0.975 5631:0.923 5632:0.914 5633:0.948 5634:0.916 5635:0.889 5636:0.924 5637:0.891 5638:0.854 5639:0.88 5640:0.867 5641:0.854 5642:0.844 5643:0.854 5644:0.839 5645:0.843 5646:0.847 5647:0.848 5648:0.854 5649:0.822 5650:0.83 5651:0.81 5652:0.802 5653:0.786 5654:0.803 5655:0.785 5656:0.78 5657:0.755 5658:0.758 5659:0.736 5660:0.711 5661:0.718 5662:0.703 5663:0.669 5664:0.661 5665:0.666 5666:0.638 5667:0.607 5668:0.606 5669:0.581 5670:0.529 5671:0.546 5672:0.523 5673:0.51 5674:0.48 5675:0.467 5676:0.437 5677:0.437 5678:0.423 5679:0.404 5680:0.396 5681:0.367 5682:0.352 5683:0.343 5684:0.337 5685:0.312 5686:0.319 5687:0.305 5688:0.285 5689:0.27 5690:0.256 5691:0.253 5692:0.239 5693:0.208 5694:0.204 5695:0.2 5696:0.182 5697:0.202 5698:0.175 5699:0.148 5700:0.139 5701:0.161 5702:0.167 5703:0.153 5704:0.146 5705:0.129 5706:0.127 5707:0.131 5708:0.103 5709:0.119 5710:0.09 5711:0.106 5712:0.083 5713:0.095 5714:0.104 5715:0.072 5716:0.081 5717:0.089 5718:0.081 5719:0.086 5720:0.09 5721:0.095 5722:0.098 5723:0.114 5724:0.109 5725:0.124 5726:0.127 5727:0.132 5728:0.141 5729:0.154 5730:0.168 5731:0.17 5732:0.178 5733:0.186 5734:0.202 5735:0.202 5736:0.228 5737:0.231 5738:0.241 5739:0.248 5740:0.275 5741:0.255 5742:0.29 5743:0.3 5744:0.296 5745:0.319 5746:0.332 5747:0.324 5748:0.334 5749:0.371 5750:0.364 5751:0.376 5752:0.385 5753:0.397 5754:0.432 5755:0.456 5756:0.418 5757:0.463 5758:0.488 5759:0.485 5760:0.488 5761:0.534 5762:0.547 5763:0.551 5764:0.56 5765:0.595 5766:0.601 5767:0.61 5768:0.603 5769:0.635 5770:0.635 5771:0.668 5772:0.718 5773:0.705 5774:0.708 5775:0.762 5776:0.778 5777:0.773 5778:0.81 5779:0.843 5780:0.862 5781:0.88 5782:0.857 5783:0.917 5784:0.943 5785:0.884 5786:0.93 5787:1 5788:0.939 5789:0.966 5790:0.948 5791:0.9 5792:0.958 5793:0.939 5794:0.916 5795:0.947 5796:0.9 5797:0.874 5798:0.925 5799:0.825 5800:0.804 5801:0.881 5802:0.824 5803:0.815 5804:0.813 5805:0.797 5806:0.813 5807:0.798 5808:0.77 5809:0.786 5810:0.738 5811:0.756 5812:0.769 5813:0.701 5814:0.694 5815:0.66 5816:0.683 5817:0.613 5818:0.564 5819:0.566 5820:0.494 5821:0.457 5822:0.528 5823:0.467 5824:0.411 5825:0.369 5826:0.384 5827:0.352 5828:0.386 5829:0.381 5830:0.353 5831:0.393 5832:0.339 5833:0.341 5834:0.4 5835:0.345 5836:0.338 5837:0.342 5838:0.313 5839:0.335 5840:0.32 5841:0.328 5842:0.347 5843:0.307 5844:0.29 5845:0.338 5846:0.3 5847:0.331 5848:0.356 5849:0.257 5850:0.315 5851:0.348 5852:0.278 5853:0.291 5854:0.33 5855:0.285 5856:0.298 5857:0.35 5858:0.316 5859:0.268 5860:0.308 5861:0.309 5862:0.286 5863:0.265 5864:0.299 5865:0.296 5866:0.257 5867:0.281 5868:0.316 5869:0.291 5870:0.254 5871:0.228 5872:0.229 5873:0.223 5874:0.221 5875:0.195 5876:0.207 5877:0.201 5878:0.172 5879:0.179 5880:0.149 5881:0.136 5882:0.135 5883:0.108 5884:0.141 5885:0.131 5886:0.134 5887:0.104 5888:0.136 5889:0.149 5890:0.123 5891:0.132 5892:0.114 5893:0.121 5894:0.108 5895:0.12 5896:0.089 5897:0.11 5898:0.115 5899:0.162 5900:0.087 5901:0.107 5902:0.092 5903:0.105 5904:0.101 5905:0.111 5906:0.092 5907:0.067 5908:0.043 5909:0.086 5910:0.069 5911:0.065 5912:0.065 5913:0.067 5914:0.058 5915:0.066 5916:0.072 5917:0.066 5918:0.046 5919:0.059 5920:0.055 5921:0.053 5922:0.081 5923:0.041 5924:0.042 5925:0.016 5926:0.055 5927:0.051 5928:0.037 5929:0.039 5930:0.044 5931:0.04 5932:0.014 5933:0.025 5934:0.028 5935:0.023 5936:0.05 5937:0.033 5938:0.021 5939:0.013 5940:0.047 5941:0.077 5942:0.035 5943:0.031 5944:0.047 5945:0.027 5946:0.043 5947:0.084 5948:0.062 5949:0.09 5950:0.033 5951:0.059 5952:0.067 5953:0.053 5954:0.046 5955:0.08 5956:0.076 5957:0.085 5958:0.069 5959:0.057 5960:0.097 5961:0.077 5962:0.092 5963:0.103 5964:0.123 5965:0.1 5966:0.13 5967:0.148 5968:0.174 5969:0.18 5970:0.184 5971:0.129 5972:0.199 5973:0.204 5974:0.191 5975:0.25 5976:0.252 5977:0.226 5978:0.225 5979:0.271 5980:0.277 5981:0.244 5982:0.233 5983:0.279 5984:0.287 5985:0.279 5986:0.308 5987:0.292 5988:0.287 5989:0.33 5990:0.347 5991:0.35 5992:0.335 5993:0.365 5994:0.374 5995:0.378 5996:0.443 5997:0.462 5998:0.448 5999:0.485 6000:0.485 6001:0.503 6002:0.571 6003:0.567 6004:0.576 6005:0.675 6006:0.672 6007:0.674 6008:0.707 6009:0.706 6010:0.749 6011:0.796 6012:0.769 6013:0.826 6014:0.786 6015:0.805 6016:0.794 6017:0.796 6018:0.853 6019:0.888 6020:0.916 6021:0.897 6022:0.941 6023:0.907 6024:0.907 6025:0.94 6026:1 6027:0.984 6028:0.919 6029:0.924 6030:0.996 6031:0.918 6032:0.96 6033:0.937 6034:0.896 6035:0.849 6036:0.913 6037:0.9 6038:0.827 6039:0.83 6040:0.804 6041:0.757 6042:0.782 6043:0.749 6044:0.747 6045:0.756 6046:0.716 6047:0.679 6048:0.734 6049:0.682 6050:0.642 6051:0.593 6052:0.62 6053:0.598 6054:0.6 6055:0.534 6056:0.557 6057:0.505 6058:0.509 6059:0.446 6060:0.454 6061:0.508 6062:0.453 6063:0.521 6064:0.468 6065:0.445 6066:0.439 6067:0.405 6068:0.333 6069:0.387 6070:0.376 6071:0.331 6072:0.38 6073:0.376 6074:0.345 6075:0.348 6076:0.36 6077:0.351 6078:0.332 6079:0.326 6080:0.301 6081:0.369 6082:0.313 6083:0.299 6084:0.313 6085:0.263 6086:0.288 6087:0.269 6088:0.212 6089:0.247 6090:0.306 6091:0.296 6092:0.231 6093:0.182 6094:0.144 6095:0.161 6096:0.177 6097:0.166 6098:0.175 6099:0.164 6100:0.281 6101:0.249 6102:0.251 6103:0.214 6104:0.206 6105:0.202 6106:0.12 6107:0.638 6108:0.443 6109:0.25 6110:0.176 6111:0.208 6112:0.249 6113:0.146 6114:0.307 6115:0.276 6116:0.621 6117:0.862 6118:0.143 6119:0.292 6120:0.099 6121:0.097 6122:0.179 6123:0.12 6124:0.025 6125:0.239 6126:0.534 6127:0.179 6128:0.186 6129:0.003 6130:0.127 6131:0.122 6132:0.049 6133:0.111 6134:0.046 6135:0.067 6136:0.086 6137:0.049 6138:0.05 6139:0.053 6140:0.069 6141:0.034 6142:0.036 6143:0.006 6144:0.057 6145:0.019 6146:0.06 6147:0.03 6148:0.046 6149:0.035 6150:0.01 6151:0.019 6152:0.023 6153:0.028 6154:0.053 6155:0.027 6156:0.046 6157:0.011 6158:0.102 6159:0.039 6160:0.039 6161:0.085 6162:0.028 6163:0.058 6164:0.154 6165:0.089 6166:0.079 6167:0.061 6168:0.112 6169:0.043 6170:0.067 6171:0.057 6172:0.046 6173:0.051 6174:0.075 6175:0.047 6176:0.087 6177:0.154 6178:0.185 6179:0.316 6180:0.317 6181:0.084 6182:0.168 6183:0.208 6184:0.1 6185:0.316 6186:0.116 6187:0.242 6188:0.692 6189:1 6190:0.194 6191:0.161 6192:0.167 6193:0.094 6194:0.268 6195:0.225 6196:0.175 6197:0.194 6198:0.408 6199:0.177 6200:0.154 6201:0.091 6202:0.187 6203:0.133 6204:0.194 6205:0.141 6206:0.105 6207:0.192 6208:0.174 6209:0.055 6210:0.09 6211:0.128 6212:0.101 6213:0.119 6214:0.071 6215:0.081 6216:0.106 6217:0.072 6218:0.114 6219:0.085 6220:0.063 6221:0.058 6222:0.056 6223:0.061 6224:0.079 6225:0.086 6226:0.068 6227:0.122 6228:0.026 6229:0.136 6230:0.059 6231:0.034 6232:0.049 6233:0.068 6234:0.069 6235:0.083 6236:0.079 6237:0.086 6238:0.042 6239:0.053 6240:0.04 6241:0.05 6242:0.035 6243:0.06 6244:0.036 6245:0.026 6246:0.07 6247:0.024 6248:0.037 6249:0.023 6250:0.036 6251:0.024 6252:0.022 6253:0.011 6254:0.027 6255:0.025 6256:0.033 6257:0.051 6258:0.021 6259:0.016 6260:0.015 6261:0.014 6262:0.013 6263:0.03 6264:0.022 6265:0.022 6266:0.03 6267:0.022 6268:0.03 6269:0.009 6270:0.012 6271:0.017 6272:0.019 6273:0.022 6274:0.018 6275:0.033 6276:0.016 6277:0.011 6278:0.024 6279:0.02 6280:0.016 6281:0.02 6282:0.01 6283:0.024 6284:0.019 6285:0.025 6286:0.027 6287:0.023 6288:0.017 
0.03525418372229031 1:0.044 2:0.042 3:0.045 4:0.05 5:0.046 6:0.051 7:0.051 8:0.05 9:0.06 10:0.053 11:0.058 12:0.062 13:0.06 14:0.068 15:0.069 16:0.069 17:0.08 18:0.078 19:0.081 20:0.088 21:0.083 22:0.098 23:0.102 24:0.106 25:0.116 26:0.112 27:0.115 28:0.125 29:0.127 30:0.132 31:0.134 32:0.14 33:0.144 34:0.14 35:0.153 36:0.16 37:0.158 38:0.171 39:0.17 40:0.168 41:0.183 42:0.185 43:0.178 44:0.185 45:0.188 46:0.19 47:0.184 48:0.194 49:0.2 50:0.192 51:0.207 52:0.228 53:0.215 54:0.236 55:0.257 56:0.248 57:0.265 58:0.282 59:0.273 60:0.271 61:0.282 62:0.286 63:0.283 64:0.294 65:0.301 66:0.292 67:0.325 68:0.343 69:0.321 70:0.337 71:0.377 72:0.403 73:0.408 74:0.4 75:0.44 76:0.501 77:0.495 78:0.488 79:0.548 80:0.564 81:0.578 82:0.622 83:0.624 84:0.65 85:0.684 86:0.699 87:0.726 88:0.759 89:0.773 90:0.811 91:0.856 92:0.832 93:0.864 94:0.96 95:0.894 96:0.866 97:0.97 98:0.976 99:0.911 100:0.966 101:0.945 102:0.899 103:1 104:0.957 105:0.864 106:0.897 107:0.946 108:0.901 109:0.86 110:0.865 111:0.885 112:0.861 113:0.802 114:0.831 115:0.819 116:0.777 117:0.817 118:0.815 119:0.758 120:0.797 121:0.81 122:0.765 123:0.779 124:0.81 125:0.747 126:0.75 127:0.803 128:0.746 129:0.721 130:0.725 131:0.722 132:0.682 133:0.676 134:0.647 135:0.616 136:0.616 137:0.595 138:0.577 139:0.575 140:0.549 141:0.51 142:0.524 143:0.507 144:0.495 145:0.495 146:0.493 147:0.492 148:0.476 149:0.451 150:0.453 151:0.464 152:0.429 153:0.406 154:0.405 155:0.403 156:0.394 157:0.367 158:0.37 159:0.372 160:0.343 161:0.328 162:0.332 163:0.328 164:0.304 165:0.315 166:0.309 167:0.286 168:0.287 169:0.28 170:0.285 171:0.271 172:0.253 173:0.251 174:0.237 175:0.218 176:0.194 177:0.213 178:0.199 179:0.193 180:0.181 181:0.16 182:0.165 183:0.158 184:0.143 185:0.141 186:0.145 187:0.131 188:0.132 189:0.118 190:0.119 191:0.107 192:0.092 193:0.103 194:0.089 195:0.09 196:0.085 197:0.087 198:0.07 199:0.068 200:0.071 201:0.063 202:0.066 203:0.059 204:0.062 205:0.064 206:0.067 207:0.045 208:0.047 209:0.054 210:0.036 211:0.041 212:0.046 213:0.037 214:0.032 215:0.223 216:0.235 217:0.196 218:0.244 219:0.239 220:0.225 221:0.279 222:0.27 223:0.249 224:0.259 225:0.304 226:0.322 227:0.349 228:0.302 229:0.354 230:0.397 231:0.343 232:0.395 233:0.371 234:0.437 235:0.398 236:0.417 237:0.442 238:0.467 239:0.444 240:0.487 241:0.517 242:0.516 243:0.519 244:0.51 245:0.58 246:0.59 247:0.551 248:0.572 249:0.585 250:0.612 251:0.648 252:0.593 253:0.633 254:0.717 255:0.696 256:0.675 257:0.748 258:0.751 259:0.716 260:0.703 261:0.729 262:0.757 263:0.728 264:0.796 265:0.766 266:0.758 267:0.821 268:0.739 269:0.823 270:0.865 271:0.804 272:0.86 273:0.885 274:0.839 275:0.9 276:0.878 277:0.881 278:0.94 279:0.856 280:0.932 281:0.955 282:0.91 283:0.953 284:0.944 285:1 286:0.93 287:0.913 288:0.866 289:0.937 290:0.925 291:0.936 292:0.874 293:0.9 294:0.937 295:0.918 296:0.957 297:0.887 298:0.897 299:0.986 300:0.953 301:0.922 302:0.941 303:0.883 304:0.878 305:0.89 306:0.895 307:0.828 308:0.813 309:0.928 310:0.875 311:0.796 312:0.866 313:0.896 314:0.836 315:0.818 316:0.825 317:0.788 318:0.806 319:0.75 320:0.842 321:0.826 322:0.713 323:0.775 324:0.858 325:0.789 326:0.852 327:0.874 328:0.817 329:0.895 330:0.965 331:0.82 332:0.839 333:0.933 334:0.856 335:0.923 336:0.899 337:0.818 338:0.875 339:0.838 340:0.82 341:0.848 342:0.726 343:0.721 344:0.797 345:0.68 346:0.638 347:0.688 348:0.691 349:0.687 350:0.686 351:0.621 352:0.656 353:0.729 354:0.666 355:0.65 356:0.663 357:0.671 358:0.624 359:0.595 360:0.586 361:0.616 362:0.635 363:0.537 364:0.523 365:0.542 366:0.55 367:0.509 368:0.428 369:0.464 370:0.46 371:0.453 372:0.376 373:0.396 374:0.383 375:0.405 376:0.359 377:0.272 378:0.291 379:0.383 380:0.273 381:0.251 382:0.295 383:0.278 384:0.245 385:0.275 386:0.21 387:0.191 388:0.213 389:0.185 390:0.184 391:0.119 392:0.178 393:0.213 394:0.137 395:0.083 396:0.086 397:0.117 398:0.108 399:0.135 400:0.121 401:0.093 402:0.103 403:0.124 404:0.067 405:0.078 406:0.082 407:0.076 408:0.051 409:0.044 410:0.037 411:0.075 412:0.089 413:0.073 414:0.088 415:0.072 416:0.084 417:0.082 418:0.078 419:0.061 420:0.061 421:0.073 422:0.062 423:0.062 424:0.054 425:0.068 426:0.039 427:0.023 428:0.063 429:0.019 430:0.005 431:0.095 432:0.126 433:0.152 434:0.099 435:0.094 436:0.13 437:0.072 438:0.064 439:0.121 440:0.12 441:0.142 442:0.15 443:0.129 444:0.126 445:0.057 446:0.134 447:0.142 448:0.167 449:0.144 450:0.143 451:0.105 452:0.206 453:0.116 454:0.17 455:0.176 456:0.12 457:0.126 458:0.114 459:0.162 460:0.099 461:0.15 462:0.177 463:0.132 464:0.121 465:0.149 466:0.178 467:0.082 468:0.165 469:0.138 470:0.202 471:0.195 472:0.157 473:0.116 474:0.202 475:0.284 476:0.161 477:0.16 478:0.174 479:0.234 480:0.179 481:0.279 482:0.244 483:0.242 484:0.23 485:0.228 486:0.196 487:0.289 488:0.257 489:0.243 490:0.266 491:0.275 492:0.245 493:0.243 494:0.222 495:0.34 496:0.284 497:0.299 498:0.359 499:0.388 500:0.336 501:0.473 502:0.432 503:0.328 504:0.415 505:0.425 506:0.438 507:0.52 508:0.44 509:0.44 510:0.313 511:0.472 512:0.331 513:0.39 514:0.388 515:0.396 516:0.294 517:0.421 518:0.455 519:0.292 520:0.288 521:0.387 522:0.382 523:0.409 524:0.339 525:0.479 526:0.406 527:0.392 528:0.436 529:0.375 530:0.393 531:0.477 532:0.439 533:0.362 534:0.5 535:0.353 536:0.261 537:0.457 538:0.358 539:0.352 540:0.354 541:0.336 542:0.418 543:0.451 544:0.308 545:0.314 546:0.392 547:0.328 548:0.357 549:0.503 550:0.377 551:0.267 552:0.334 553:0.284 554:0.544 555:0.496 556:0.203 557:0.333 558:0.454 559:0.319 560:0.296 561:0.398 562:0.343 563:0.325 564:0.396 565:0.396 566:0.417 567:0.513 568:0.348 569:0.325 570:0.466 571:0.564 572:0.474 573:0.474 574:0.444 575:0.475 576:0.431 577:0.405 578:0.494 579:0.452 580:0.426 581:0.42 582:0.341 583:0.431 584:0.361 585:0.388 586:0.345 587:0.441 588:0.377 589:0.387 590:0.37 591:0.4 592:0.34 593:0.373 594:0.622 595:0.468 596:0.389 597:0.433 598:0.489 599:0.583 600:0.39 601:0.554 602:0.51 603:0.465 604:0.537 605:0.438 606:0.648 607:0.533 608:0.515 609:0.644 610:0.224 611:0.724 612:0.653 613:0.412 614:1 615:0.878 616:0.68 617:0.403 618:0.521 619:0.444 620:0.303 621:0.232 622:0.222 623:0.114 624:0.088 625:0.198 626:0.236 627:0.294 628:0.151 629:0.145 630:0.185 631:0.267 632:0.096 633:0.15 634:0.169 635:0.084 636:0.14 637:0.179 638:0.168 639:0.124 640:0.076 641:0.121 642:0.207 643:0.226 644:0.046 645:0.072 646:0.026 647:0.185 648:0.118 649:0.079 650:0.209 651:0.204 652:0.171 653:0.122 654:0.096 655:0.148 656:0.163 657:0.255 658:0.31 659:0.158 660:0.216 661:0.128 662:0.131 663:0.129 664:0.233 665:0.2 666:0.177 667:0.221 668:0.093 669:0.114 670:0.247 671:0.251 672:0.297 673:0.257 674:0.256 675:0.341 676:0.345 677:0.466 678:0.463 679:0.516 680:0.447 681:0.369 682:0.495 683:0.321 684:0.646 685:0.51 686:0.168 687:0.074 688:0.681 689:0.674 690:0.421 691:0.667 692:0.53 693:0.519 694:0.607 695:0.591 696:0.859 697:0.543 698:0.516 699:0.628 700:0.454 701:0.533 702:0.529 703:0.502 704:0.614 705:0.602 706:0.544 707:0.461 708:0.505 709:0.424 710:0.523 711:0.5 712:0.402 713:0.478 714:0.463 715:0.552 716:0.412 717:0.447 718:0.579 719:0.565 720:0.393 721:0.554 722:0.529 723:0.592 724:0.536 725:0.479 726:0.575 727:0.498 728:0.441 729:0.488 730:0.455 731:0.536 732:0.507 733:0.495 734:0.428 735:0.567 736:0.492 737:0.51 738:0.549 739:0.45 740:0.426 741:0.496 742:0.46 743:0.611 744:0.588 745:0.534 746:0.564 747:0.956 748:0.244 749:0.582 750:1 751:0.429 752:0.323 753:0.695 754:0.346 755:0.185 756:0.353 757:0.526 758:0.295 759:0.268 760:0.176 761:0.169 762:0.189 763:0.133 764:0.074 765:0.123 766:0.089 767:0.075 768:0.081 769:0.052 770:0.031 771:0.053 772:0.043 773:0.018 774:0.034 775:0.015 776:0.038 777:0.057 778:0.021 779:0.024 780:0.001 781:0.005 782:0.012 783:0.085 784:0.073 785:0.02 786:0.131 787:0.047 788:0.051 789:0.042 790:0.065 791:0.042 792:0.065 793:0.061 794:0.055 795:0.07 796:0.066 797:0.067 798:0.064 799:0.073 800:0.071 801:0.085 802:0.075 803:0.088 804:0.088 805:0.091 806:0.099 807:0.101 808:0.106 809:0.102 810:0.112 811:0.117 812:0.123 813:0.128 814:0.138 815:0.139 816:0.141 817:0.148 818:0.145 819:0.154 820:0.144 821:0.16 822:0.162 823:0.163 824:0.184 825:0.179 826:0.185 827:0.199 828:0.196 829:0.195 830:0.195 831:0.21 832:0.22 833:0.208 834:0.215 835:0.233 836:0.219 837:0.234 838:0.262 839:0.246 840:0.276 841:0.292 842:0.294 843:0.298 844:0.334 845:0.331 846:0.328 847:0.341 848:0.35 849:0.369 850:0.373 851:0.377 852:0.384 853:0.41 854:0.427 855:0.422 856:0.418 857:0.461 858:0.478 859:0.473 860:0.486 861:0.511 862:0.565 863:0.562 864:0.575 865:0.621 866:0.637 867:0.637 868:0.688 869:0.697 870:0.699 871:0.728 872:0.747 873:0.784 874:0.802 875:0.823 876:0.845 877:0.865 878:0.85 879:0.907 880:0.921 881:0.895 882:0.888 883:0.946 884:0.948 885:0.922 886:0.959 887:0.971 888:0.923 889:0.988 890:0.99 891:0.914 892:0.922 893:1 894:0.976 895:0.892 896:0.976 897:0.988 898:0.968 899:0.907 900:0.956 901:0.92 902:0.887 903:0.891 904:0.883 905:0.827 906:0.849 907:0.862 908:0.81 909:0.814 910:0.833 911:0.766 912:0.775 913:0.782 914:0.766 915:0.724 916:0.72 917:0.723 918:0.698 919:0.682 920:0.67 921:0.642 922:0.626 923:0.577 924:0.584 925:0.579 926:0.538 927:0.509 928:0.522 929:0.481 930:0.495 931:0.45 932:0.439 933:0.439 934:0.438 935:0.413 936:0.411 937:0.384 938:0.396 939:0.356 940:0.358 941:0.352 942:0.344 943:0.33 944:0.308 945:0.341 946:0.31 947:0.297 948:0.307 949:0.306 950:0.265 951:0.306 952:0.287 953:0.268 954:0.252 955:0.275 956:0.223 957:0.263 958:0.196 959:0.233 960:0.181 961:0.216 962:0.172 963:0.207 964:0.15 965:0.161 966:0.134 967:0.157 968:0.119 969:0.152 970:0.101 971:0.117 972:0.093 973:0.1 974:0.093 975:0.102 976:0.077 977:0.072 978:0.073 979:0.052 980:0.078 981:0.048 982:0.073 983:0.069 984:0.07 985:0.036 986:0.07 987:0.046 988:0.057 989:0.029 990:0.06 991:0.024 992:0.06 993:0.015 994:0.064 995:0.017 996:0.047 997:0.019 998:0.063 999:0.028 1000:0.052 1001:0.181 1002:0.171 1003:0.175 1004:0.251 1005:0.192 1006:0.193 1007:0.245 1008:0.233 1009:0.238 1010:0.206 1011:0.229 1012:0.327 1013:0.22 1014:0.246 1015:0.286 1016:0.294 1017:0.326 1018:0.279 1019:0.309 1020:0.346 1021:0.33 1022:0.351 1023:0.347 1024:0.373 1025:0.393 1026:0.44 1027:0.4 1028:0.442 1029:0.496 1030:0.443 1031:0.499 1032:0.49 1033:0.523 1034:0.496 1035:0.511 1036:0.523 1037:0.517 1038:0.525 1039:0.555 1040:0.616 1041:0.564 1042:0.594 1043:0.671 1044:0.664 1045:0.616 1046:0.638 1047:0.743 1048:0.62 1049:0.631 1050:0.771 1051:0.728 1052:0.673 1053:0.697 1054:0.664 1055:0.751 1056:0.795 1057:0.757 1058:0.839 1059:0.831 1060:0.776 1061:0.897 1062:0.864 1063:0.8 1064:0.889 1065:0.827 1066:0.941 1067:0.925 1068:0.936 1069:0.911 1070:0.983 1071:1 1072:0.864 1073:0.882 1074:0.883 1075:0.891 1076:0.832 1077:0.721 1078:0.705 1079:0.853 1080:0.893 1081:0.929 1082:0.892 1083:0.945 1084:0.792 1085:0.959 1086:0.903 1087:0.913 1088:0.811 1089:0.961 1090:0.849 1091:0.905 1092:0.916 1093:0.795 1094:0.697 1095:0.923 1096:0.813 1097:0.743 1098:0.826 1099:0.804 1100:0.912 1101:0.81 1102:0.744 1103:0.743 1104:0.772 1105:0.833 1106:0.758 1107:0.871 1108:0.687 1109:0.86 1110:0.902 1111:0.676 1112:0.869 1113:0.768 1114:0.78 1115:0.767 1116:0.901 1117:0.686 1118:0.752 1119:0.859 1120:0.793 1121:0.798 1122:0.727 1123:0.818 1124:0.814 1125:0.74 1126:0.802 1127:0.796 1128:0.718 1129:0.63 1130:0.835 1131:0.671 1132:0.789 1133:0.721 1134:0.655 1135:0.607 1136:0.625 1137:0.674 1138:0.602 1139:0.683 1140:0.656 1141:0.629 1142:0.524 1143:0.624 1144:0.532 1145:0.488 1146:0.566 1147:0.491 1148:0.457 1149:0.49 1150:0.413 1151:0.304 1152:0.46 1153:0.396 1154:0.391 1155:0.422 1156:0.416 1157:0.269 1158:0.36 1159:0.325 1160:0.296 1161:0.31 1162:0.24 1163:0.164 1164:0.239 1165:0.242 1166:0.219 1167:0.149 1168:0.184 1169:0.178 1170:0.142 1171:0.116 1172:0.216 1173:0.113 1174:0.098 1175:0.071 1176:0.172 1177:0.034 1178:0.16 1179:0.065 1180:0.034 1181:0.195 1182:0.016 1183:0.152 1184:0.169 1185:0.125 1186:0.042 1187:0.112 1188:0.082 1189:0.146 1190:0.132 1191:0.048 1192:0.115 1193:0.124 1194:0.091 1195:0.076 1196:0.109 1197:0.105 1198:0.108 1199:0.086 1200:0.086 1201:0.092 1202:0.051 1203:0.077 1204:0.077 1205:0.139 1206:0.052 1207:0.054 1208:0.074 1209:0.075 1210:0.095 1211:0.076 1212:0.118 1213:0.154 1214:0.081 1215:0.054 1216:0.019 1217:0.117 1218:0.047 1219:0.044 1220:0.06 1221:0.046 1222:0.084 1223:0.042 1224:0.123 1225:0.072 1226:0.112 1227:0.057 1228:0.041 1229:0.066 1230:0.07 1231:0.09 1232:0.085 1233:0.078 1234:0.032 1235:0.057 1236:0.069 1237:0.109 1238:0.026 1239:0.031 1240:0.085 1241:0.08 1242:0.071 1243:0.102 1244:0.106 1245:0.054 1246:0.179 1247:0.132 1248:0.108 1249:0.131 1250:0.155 1251:0.075 1252:0.116 1253:0.031 1254:0.08 1255:0.019 1256:0.138 1257:0.151 1258:0.059 1259:0.074 1260:0.105 1261:0.118 1262:0.172 1263:0.164 1264:0.064 1265:0.079 1266:0.225 1267:0.122 1268:0.147 1269:0.078 1270:0.046 1271:0.138 1272:0.137 1273:0.245 1274:0.204 1275:0.152 1276:0.13 1277:0.187 1278:0.156 1279:0.115 1280:0.081 1281:0.177 1282:0.095 1283:0.161 1284:0.092 1285:0.097 1286:0.083 1287:0.172 1288:0.211 1289:0.181 1290:0.186 1291:0.253 1292:0.177 1293:0.217 1294:0.184 1295:0.203 1296:0.305 1297:0.148 1298:0.184 1299:0.193 1300:0.106 1301:0.153 1302:0.164 1303:0.091 1304:0.156 1305:0.1 1306:0.212 1307:0.194 1308:0.24 1309:0.195 1310:0.251 1311:0.333 1312:0.149 1313:0.183 1314:0.107 1315:0.243 1316:0.269 1317:0.178 1318:0.135 1319:0.193 1320:0.154 1321:0.03 1322:0.149 1323:0.163 1324:0.191 1325:0.193 1326:0.19 1327:0.167 1328:0.138 1329:0.11 1330:0.21 1331:0.195 1332:0.27 1333:0.142 1334:0.174 1335:0.241 1336:0.024 1337:0.149 1338:0.138 1339:0.152 1340:0.156 1341:0.108 1342:0.073 1343:0.159 1344:0.22 1345:0.136 1346:0.065 1347:0.111 1348:0.087 1349:0.152 1350:0.109 1351:0.056 1352:0.133 1353:0.181 1354:0.153 1355:0.146 1356:0.146 1357:0.2 1358:0.176 1359:0.158 1360:0.24 1361:0.287 1362:0.124 1363:0.038 1364:0.255 1365:0.228 1366:0.222 1367:0.135 1368:0.151 1369:0.077 1370:0.222 1371:0.254 1372:0.354 1373:0.187 1374:0.173 1375:0.146 1376:0.071 1377:0.208 1378:0.226 1379:0.299 1380:0.251 1381:0.155 1382:0.287 1383:0.238 1384:0.275 1385:0.229 1386:0.204 1387:0.157 1388:0.245 1389:0.079 1390:0.486 1391:0.358 1392:0.129 1393:0.766 1394:0.136 1395:0.016 1396:0.48 1397:0.241 1398:0.302 1399:0.647 1400:0.425 1401:1 1402:0.552 1403:0.095 1404:0.278 1405:0.363 1406:0.282 1407:0.297 1408:0.231 1409:0.24 1410:0.302 1411:0.159 1412:0.41 1413:0.316 1414:0.127 1415:0.171 1416:0.028 1417:0.335 1418:0.105 1419:0.149 1420:0.151 1421:0.084 1422:0.218 1423:0.12 1424:0.043 1425:0.16 1426:0.273 1427:0.236 1428:0.095 1429:0.016 1430:0.042 1431:0.106 1432:0.171 1433:0.068 1434:0.042 1435:0.082 1436:0.168 1437:0.063 1438:0.091 1439:0.217 1440:0.129 1441:0.22 1442:0.182 1443:0.171 1444:0.018 1445:0.09 1446:0.11 1447:0.083 1448:0.093 1449:0.08 1450:0.06 1451:0.064 1452:0.044 1453:0.081 1454:0.267 1455:0.129 1456:0.117 1457:0.078 1458:0.012 1459:0.165 1460:0.073 1461:0.177 1462:0.211 1463:0.108 1464:0.407 1465:0.054 1466:0.177 1467:0.087 1468:0.226 1469:0.202 1470:0.27 1471:0.35 1472:0.683 1473:0.839 1474:0.288 1475:0.109 1476:0.252 1477:0.073 1478:0.198 1479:0.098 1480:0.109 1481:0.233 1482:0.447 1483:0.207 1484:0.244 1485:0.107 1486:0.107 1487:0.339 1488:0.285 1489:0.277 1490:0.141 1491:0.167 1492:0.193 1493:0.102 1494:0.145 1495:0.074 1496:0.117 1497:0.049 1498:0.155 1499:0.128 1500:0.084 1501:0.041 1502:0.058 1503:0.128 1504:0.059 1505:0.064 1506:0.191 1507:0.143 1508:0.153 1509:0.104 1510:0.104 1511:0.201 1512:0.11 1513:0.056 1514:0.108 1515:0.088 1516:0.105 1517:0.059 1518:0.117 1519:0.039 1520:0.083 1521:0.036 1522:0.112 1523:0.09 1524:0.082 1525:0.098 1526:0.109 1527:0.217 1528:0.107 1529:0.184 1530:0.063 1531:0.219 1532:0.388 1533:0.279 1534:0.62 1535:0.529 1536:0.271 1537:0.23 1538:0.82 1539:0.376 1540:1 1541:0.518 1542:0.223 1543:0.178 1544:0.052 1545:0.152 1546:0.165 1547:0.27 1548:0.087 1549:0.113 1550:0.059 1551:0.094 1552:0.088 1553:0.051 1554:0.03 1555:0.032 1556:0.086 1557:0.048 1558:0.06 1559:0.041 1560:0.065 1561:0.096 1562:0.028 1563:0.034 1564:0.073 1565:0.044 1566:0.056 1567:0.024 1568:0.069 1569:0.034 1570:0.05 1571:0.076 1572:0.019 1573:0.015 1574:0.016 1575:0.021 1576:0.014 1577:0.021 1578:0.024 1579:0.019 1580:0.018 1581:0.015 1582:0.012 1583:0.016 1584:0.004 1585:0.018 1586:0.029 1587:0.013 1588:0.015 1589:0.024 1590:0.024 1591:0.033 1592:0.022 1593:0.025 1594:0.016 1595:0.018 1596:0.029 1597:0.036 1598:0.016 1599:0.024 1600:0.017 1601:0.023 1602:0.023 1603:0.032 1604:0.043 1605:0.031 1606:0.03 1607:0.017 1608:0.024 1609:0.026 1610:0.019 1611:0.005 1612:0.014 1613:0.019 1614:0.014 1615:0.027 1616:0.017 1617:0.019 1618:0.028 1619:0.03 1620:0.013 1621:0.013 1622:0.01 1623:0.022 1624:0.019 1625:0.015 1626:0.055 1627:0.015 1628:0.018 1629:0.024 1630:0.042 1631:0.027 1632:0.046 1633:0.029 1634:0.027 1635:0.045 1636:0.046 1637:0.039 1638:0.051 1639:0.047 1640:0.103 1641:0.08 1642:0.112 1643:0.112 1644:0.113 1645:0.073 1646:0.089 1647:0.098 1648:0.125 1649:0.125 1650:0.161 1651:0.165 1652:0.179 1653:0.173 1654:0.214 1655:0.192 1656:0.184 1657:0.243 1658:0.248 1659:0.279 1660:0.276 1661:0.28 1662:0.285 1663:0.289 1664:0.302 1665:0.305 1666:0.359 1667:0.332 1668:0.378 1669:0.392 1670:0.378 1671:0.414 1672:0.444 1673:0.453 1674:0.435 1675:0.472 1676:0.48 1677:0.484 1678:0.471 1679:0.57 1680:0.554 1681:0.521 1682:0.547 1683:0.586 1684:0.512 1685:0.512 1686:0.538 1687:0.619 1688:0.593 1689:0.566 1690:0.561 1691:0.533 1692:0.511 1693:0.614 1694:0.615 1695:0.564 1696:0.576 1697:0.557 1698:0.538 1699:0.598 1700:0.535 1701:0.574 1702:0.587 1703:0.584 1704:0.577 1705:0.506 1706:0.482 1707:0.577 1708:0.582 1709:0.473 1710:0.48 1711:0.563 1712:0.48 1713:0.504 1714:0.436 1715:0.505 1716:0.486 1717:0.425 1718:0.431 1719:0.451 1720:0.414 1721:0.399 1722:0.393 1723:0.351 1724:0.337 1725:0.347 1726:0.366 1727:0.408 1728:0.376 1729:0.388 1730:0.354 1731:0.321 1732:0.289 1733:0.301 1734:0.287 1735:0.321 1736:0.267 1737:0.318 1738:0.322 1739:0.291 1740:0.277 1741:0.311 1742:0.262 1743:0.224 1744:0.247 1745:0.228 1746:0.228 1747:0.211 1748:0.19 1749:0.192 1750:0.208 1751:0.202 1752:0.177 1753:0.195 1754:0.178 1755:0.175 1756:0.116 1757:0.113 1758:0.14 1759:0.111 1760:0.102 1761:0.117 1762:0.127 1763:0.104 1764:0.084 1765:0.087 1766:0.122 1767:0.074 1768:0.047 1769:0.055 1770:0.095 1771:0.075 1772:0.095 1773:0.088 1774:0.057 1775:0.061 1776:0.048 1777:0.063 1778:0.056 1779:0.018 1780:0.024 1781:0.043 1782:0.046 1783:0.048 1784:0.038 1785:0.023 1786:0.013 1787:0.067 1788:0.039 1789:0.052 1790:0.069 1791:0.062 1792:0.077 1793:0.08 1794:0.099 1795:0.059 1796:0.088 1797:0.109 1798:0.087 1799:0.092 1800:0.092 1801:0.135 1802:0.102 1803:0.112 1804:0.107 1805:0.157 1806:0.119 1807:0.132 1808:0.169 1809:0.166 1810:0.168 1811:0.166 1812:0.202 1813:0.192 1814:0.206 1815:0.217 1816:0.222 1817:0.209 1818:0.222 1819:0.244 1820:0.235 1821:0.262 1822:0.264 1823:0.266 1824:0.262 1825:0.267 1826:0.345 1827:0.327 1828:0.309 1829:0.37 1830:0.302 1831:0.366 1832:0.366 1833:0.35 1834:0.391 1835:0.389 1836:0.389 1837:0.44 1838:0.381 1839:0.393 1840:0.429 1841:0.409 1842:0.419 1843:0.458 1844:0.414 1845:0.474 1846:0.454 1847:0.513 1848:0.511 1849:0.494 1850:0.562 1851:0.546 1852:0.559 1853:0.6 1854:0.595 1855:0.587 1856:0.638 1857:0.581 1858:0.627 1859:0.651 1860:0.548 1861:0.635 1862:0.609 1863:0.581 1864:0.566 1865:0.627 1866:0.6 1867:0.657 1868:0.665 1869:0.632 1870:0.656 1871:0.655 1872:0.646 1873:0.593 1874:0.627 1875:0.646 1876:0.666 1877:0.688 1878:0.7 1879:0.692 1880:0.625 1881:0.786 1882:0.726 1883:0.711 1884:0.681 1885:0.712 1886:0.721 1887:0.752 1888:0.772 1889:0.635 1890:0.741 1891:0.635 1892:0.751 1893:0.711 1894:0.616 1895:0.807 1896:0.704 1897:0.818 1898:0.664 1899:0.794 1900:0.726 1901:0.842 1902:0.793 1903:0.804 1904:0.775 1905:0.736 1906:0.821 1907:0.831 1908:0.779 1909:0.751 1910:0.839 1911:0.817 1912:0.865 1913:0.878 1914:0.777 1915:0.776 1916:0.782 1917:0.852 1918:0.771 1919:0.735 1920:0.845 1921:0.736 1922:0.848 1923:0.728 1924:0.581 1925:0.733 1926:0.641 1927:0.653 1928:0.662 1929:0.666 1930:0.525 1931:0.609 1932:0.606 1933:0.535 1934:0.519 1935:0.534 1936:0.463 1937:0.467 1938:0.414 1939:0.466 1940:0.396 1941:0.404 1942:0.403 1943:0.388 1944:0.314 1945:0.422 1946:0.312 1947:0.292 1948:0.353 1949:0.331 1950:0.245 1951:0.319 1952:0.333 1953:0.248 1954:0.305 1955:0.277 1956:0.189 1957:0.234 1958:0.187 1959:0.177 1960:0.171 1961:0.154 1962:0.163 1963:0.149 1964:0.151 1965:0.124 1966:0.107 1967:0.052 1968:0.152 1969:0.076 1970:0.102 1971:0.073 1972:0.164 1973:0.104 1974:0.097 1975:0.12 1976:0.08 1977:0.099 1978:0.082 1979:0.062 1980:0.084 1981:0.108 1982:0.082 1983:0.072 1984:0.064 1985:0.067 1986:0.086 1987:0.054 1988:0.025 1989:0.088 1990:0.054 1991:0.016 1992:0.092 1993:0.086 1994:0.059 1995:0.089 1996:0.077 1997:0.056 1998:0.079 1999:0.038 2000:0.11 2001:0.016 2002:0.074 2003:0.019 2004:0.132 2005:0.041 2006:0.088 2007:0.044 2008:0.064 2009:0.1 2010:0.106 2011:0.07 2012:0.093 2013:0.087 2014:0.104 2015:0.046 2016:0.139 2017:0.058 2018:0.067 2019:0.133 2020:0.07 2021:0.18 2022:0.152 2023:0.125 2024:0.15 2025:0.136 2026:0.151 2027:0.121 2028:0.1 2029:0.134 2030:0.077 2031:0.165 2032:0.079 2033:0.137 2034:0.082 2035:0.119 2036:0.09 2037:0.256 2038:0.127 2039:0.016 2040:0.069 2041:0.18 2042:0.137 2043:0.192 2044:0.113 2045:0.128 2046:0.187 2047:0.324 2048:0.107 2049:0.226 2050:0.079 2051:0.205 2052:0.172 2053:0.208 2054:0.124 2055:0.192 2056:0.116 2057:0.132 2058:0.161 2059:0.237 2060:0.097 2061:0.283 2062:0.196 2063:0.232 2064:0.166 2065:0.192 2066:0.254 2067:0.275 2068:0.172 2069:0.326 2070:0.371 2071:0.314 2072:0.273 2073:0.301 2074:0.33 2075:0.325 2076:0.344 2077:0.35 2078:0.336 2079:0.289 2080:0.382 2081:0.278 2082:0.411 2083:0.389 2084:0.262 2085:0.415 2086:0.458 2087:0.436 2088:0.319 2089:0.393 2090:0.283 2091:0.285 2092:0.312 2093:0.441 2094:0.414 2095:0.37 2096:0.353 2097:0.391 2098:0.453 2099:0.337 2100:0.361 2101:0.415 2102:0.497 2103:0.398 2104:0.313 2105:0.372 2106:0.526 2107:0.386 2108:0.365 2109:0.366 2110:0.392 2111:0.343 2112:0.484 2113:0.275 2114:0.354 2115:0.371 2116:0.455 2117:0.334 2118:0.443 2119:0.246 2120:0.309 2121:0.469 2122:0.387 2123:0.389 2124:0.337 2125:0.314 2126:0.484 2127:0.512 2128:0.31 2129:0.391 2130:0.425 2131:0.318 2132:0.326 2133:0.449 2134:0.328 2135:0.438 2136:0.303 2137:0.463 2138:0.373 2139:0.525 2140:0.315 2141:0.427 2142:0.441 2143:0.562 2144:0.419 2145:0.479 2146:0.408 2147:0.622 2148:0.484 2149:0.536 2150:0.483 2151:0.548 2152:0.467 2153:0.734 2154:0.475 2155:0.529 2156:0.516 2157:0.713 2158:0.484 2159:0.533 2160:0.524 2161:0.623 2162:0.584 2163:0.499 2164:0.5 2165:0.427 2166:0.659 2167:0.655 2168:0.403 2169:0.368 2170:0.758 2171:0.358 2172:0.455 2173:0.62 2174:0.844 2175:0.373 2176:0.634 2177:0.154 2178:0.565 2179:0.542 2180:0.697 2181:0.451 2182:0.848 2183:0.465 2184:0.782 2185:0.772 2186:0.088 2187:0.544 2188:0.68 2189:0.608 2190:0.393 2191:0.577 2192:0.466 2193:0.304 2194:0.459 2195:0.161 2196:0.13 2197:0.307 2198:0.413 2199:0.391 2200:0.322 2201:0.218 2202:0.091 2203:0.377 2204:0.268 2205:0.178 2206:0.181 2207:0.14 2208:0.032 2209:0.18 2210:0.108 2211:0.13 2212:0.154 2213:0.159 2214:0.008 2215:0.043 2216:0.049 2217:0.048 2218:0.064 2219:0.067 2220:0.034 2221:0.118 2222:0.095 2223:0.093 2224:0.03 2225:0.065 2226:0.078 2227:0.069 2228:0.049 2229:0.044 2230:0.081 2231:0.109 2232:0.119 2233:0.093 2234:0.094 2235:0.094 2236:0.151 2237:0.074 2238:0.204 2239:0.135 2240:0.017 2241:0.21 2242:0.144 2243:0.195 2244:0.262 2245:0.231 2246:0.185 2247:0.295 2248:0.304 2249:0.332 2250:0.466 2251:0.287 2252:0.456 2253:0.388 2254:0.545 2255:0.426 2256:0.402 2257:0.584 2258:0.897 2259:1 2260:0.464 2261:0.64 2262:0.578 2263:0.494 2264:0.708 2265:0.518 2266:0.842 2267:0.659 2268:0.926 2269:0.545 2270:0.619 2271:0.489 2272:0.557 2273:0.602 2274:0.634 2275:0.547 2276:0.489 2277:0.395 2278:0.492 2279:0.476 2280:0.468 2281:0.518 2282:0.478 2283:0.511 2284:0.435 2285:0.505 2286:0.501 2287:0.486 2288:0.404 2289:0.459 2290:0.476 2291:0.543 2292:0.468 2293:0.519 2294:0.505 2295:0.492 2296:0.49 2297:0.51 2298:0.532 2299:0.5 2300:0.497 2301:0.48 2302:0.474 2303:0.48 2304:0.461 2305:0.5 2306:0.449 2307:0.439 2308:0.462 2309:0.454 2310:0.475 2311:0.482 2312:0.487 2313:0.508 2314:0.448 2315:0.456 2316:0.472 2317:0.464 2318:0.482 2319:0.491 2320:0.468 2321:0.196 2322:0.253 2323:0.23 2324:0.22 2325:0.411 2326:0.335 2327:0.094 2328:0.676 2329:0.198 2330:0.485 2331:0.183 2332:0.366 2333:0.281 2334:0.143 2335:0.197 2336:0.153 2337:0.095 2338:0.128 2339:0.083 2340:0.069 2341:0.04 2342:0.04 2343:0.033 2344:0.012 2345:0.043 2346:0.048 2347:0.022 2348:0.025 2349:0.053 2350:0.021 2351:0.023 2352:0.039 2353:0.023 2354:0.025 2355:0.01 2356:0.024 2357:0.068 2358:0.041 2359:0.025 2360:0.027 2361:0.03 2362:0.028 2363:0.03 2364:0.034 2365:0.04 2366:0.037 2367:0.041 2368:0.048 2369:0.041 2370:0.054 2371:0.048 2372:0.051 2373:0.056 2374:0.052 2375:0.059 2376:0.064 2377:0.064 2378:0.071 2379:0.074 2380:0.077 2381:0.087 2382:0.088 2383:0.084 2384:0.087 2385:0.087 2386:0.105 2387:0.095 2388:0.098 2389:0.108 2390:0.107 2391:0.109 2392:0.111 2393:0.119 2394:0.126 2395:0.127 2396:0.127 2397:0.139 2398:0.138 2399:0.141 2400:0.147 2401:0.149 2402:0.156 2403:0.168 2404:0.174 2405:0.172 2406:0.182 2407:0.196 2408:0.192 2409:0.188 2410:0.214 2411:0.208 2412:0.214 2413:0.241 2414:0.232 2415:0.24 2416:0.265 2417:0.263 2418:0.258 2419:0.275 2420:0.28 2421:0.295 2422:0.309 2423:0.302 2424:0.304 2425:0.338 2426:0.349 2427:0.347 2428:0.351 2429:0.387 2430:0.401 2431:0.411 2432:0.417 2433:0.438 2434:0.476 2435:0.476 2436:0.48 2437:0.511 2438:0.532 2439:0.517 2440:0.544 2441:0.559 2442:0.558 2443:0.591 2444:0.602 2445:0.626 2446:0.627 2447:0.621 2448:0.668 2449:0.69 2450:0.681 2451:0.728 2452:0.761 2453:0.726 2454:0.756 2455:0.82 2456:0.815 2457:0.812 2458:0.836 2459:0.877 2460:0.861 2461:0.896 2462:0.954 2463:0.872 2464:0.903 2465:1 2466:0.949 2467:0.894 2468:0.944 2469:0.992 2470:0.951 2471:0.925 2472:0.957 2473:0.934 2474:0.922 2475:0.962 2476:0.949 2477:0.901 2478:0.919 2479:0.936 2480:0.885 2481:0.884 2482:0.928 2483:0.86 2484:0.848 2485:0.881 2486:0.844 2487:0.811 2488:0.83 2489:0.795 2490:0.789 2491:0.783 2492:0.769 2493:0.776 2494:0.735 2495:0.729 2496:0.729 2497:0.719 2498:0.682 2499:0.652 2500:0.667 2501:0.638 2502:0.615 2503:0.592 2504:0.582 2505:0.586 2506:0.57 2507:0.537 2508:0.518 2509:0.519 2510:0.513 2511:0.502 2512:0.478 2513:0.51 2514:0.47 2515:0.441 2516:0.447 2517:0.456 2518:0.42 2519:0.409 2520:0.403 2521:0.376 2522:0.372 2523:0.37 2524:0.358 2525:0.343 2526:0.325 2527:0.324 2528:0.316 2529:0.306 2530:0.282 2531:0.278 2532:0.276 2533:0.258 2534:0.237 2535:0.224 2536:0.212 2537:0.218 2538:0.209 2539:0.179 2540:0.187 2541:0.197 2542:0.172 2543:0.169 2544:0.167 2545:0.176 2546:0.153 2547:0.148 2548:0.159 2549:0.103 2550:0.129 2551:0.12 2552:0.114 2553:0.106 2554:0.11 2555:0.091 2556:0.08 2557:0.092 2558:0.079 2559:0.075 2560:0.066 2561:0.069 2562:0.078 2563:0.057 2564:0.068 2565:0.06 2566:0.048 2567:0.051 2568:0.049 2569:0.045 2570:0.038 2571:0.036 2572:0.036 2573:0.126 2574:0.124 2575:0.132 2576:0.147 2577:0.128 2578:0.148 2579:0.159 2580:0.154 2581:0.158 2582:0.181 2583:0.182 2584:0.213 2585:0.215 2586:0.223 2587:0.231 2588:0.212 2589:0.246 2590:0.227 2591:0.253 2592:0.264 2593:0.257 2594:0.267 2595:0.273 2596:0.29 2597:0.29 2598:0.301 2599:0.336 2600:0.361 2601:0.342 2602:0.389 2603:0.377 2604:0.39 2605:0.436 2606:0.403 2607:0.45 2608:0.46 2609:0.482 2610:0.487 2611:0.507 2612:0.53 2613:0.569 2614:0.505 2615:0.584 2616:0.56 2617:0.56 2618:0.578 2619:0.584 2620:0.567 2621:0.609 2622:0.61 2623:0.592 2624:0.626 2625:0.651 2626:0.654 2627:0.663 2628:0.655 2629:0.678 2630:0.703 2631:0.689 2632:0.715 2633:0.754 2634:0.753 2635:0.726 2636:0.753 2637:0.784 2638:0.799 2639:0.813 2640:0.866 2641:0.796 2642:0.882 2643:0.855 2644:0.88 2645:0.85 2646:0.818 2647:0.774 2648:0.858 2649:0.767 2650:0.76 2651:0.785 2652:0.782 2653:0.82 2654:0.831 2655:0.814 2656:0.759 2657:0.852 2658:0.823 2659:0.785 2660:0.825 2661:0.778 2662:0.754 2663:0.812 2664:0.815 2665:0.758 2666:0.789 2667:0.877 2668:0.815 2669:0.766 2670:0.85 2671:0.82 2672:0.838 2673:0.82 2674:0.759 2675:0.763 2676:0.777 2677:0.82 2678:0.838 2679:0.807 2680:0.771 2681:0.866 2682:0.831 2683:0.874 2684:0.908 2685:0.871 2686:0.879 2687:0.937 2688:0.932 2689:0.953 2690:0.919 2691:0.923 2692:0.973 2693:1 2694:0.945 2695:0.952 2696:0.94 2697:0.928 2698:0.945 2699:0.966 2700:0.853 2701:0.849 2702:0.911 2703:0.828 2704:0.826 2705:0.822 2706:0.8 2707:0.769 2708:0.79 2709:0.722 2710:0.644 2711:0.657 2712:0.701 2713:0.573 2714:0.669 2715:0.631 2716:0.586 2717:0.576 2718:0.536 2719:0.481 2720:0.49 2721:0.499 2722:0.499 2723:0.449 2724:0.423 2725:0.422 2726:0.43 2727:0.404 2728:0.348 2729:0.346 2730:0.332 2731:0.39 2732:0.291 2733:0.3 2734:0.289 2735:0.305 2736:0.28 2737:0.324 2738:0.275 2739:0.207 2740:0.27 2741:0.201 2742:0.162 2743:0.204 2744:0.25 2745:0.111 2746:0.152 2747:0.119 2748:0.187 2749:0.133 2750:0.117 2751:0.119 2752:0.073 2753:0.129 2754:0.11 2755:0.12 2756:0.015 2757:0.077 2758:0.081 2759:0.09 2760:0.074 2761:0.086 2762:0.064 2763:0.001 2764:0.011 2765:0.074 2766:0.047 2767:0.074 2768:0.016 2769:0.088 2770:0.052 2771:0.044 2772:0.075 2773:0.023 2774:0.027 2775:0.053 2776:0.019 2777:0.004 2778:0.031 2779:0.042 2780:0.059 2781:0.049 2782:0.056 2783:0.029 2784:0.025 2785:0.05 2786:0.044 2787:0.057 2788:0.131 2789:0.079 2790:0.073 2791:0.074 2792:0.08 2793:0.087 2794:0.077 2795:0.099 2796:0.095 2797:0.157 2798:0.081 2799:0.075 2800:0.198 2801:0.159 2802:0.059 2803:0.091 2804:0.173 2805:0.19 2806:0.139 2807:0.103 2808:0.099 2809:0.208 2810:0.196 2811:0.074 2812:0.169 2813:0.228 2814:0.158 2815:0.104 2816:0.182 2817:0.215 2818:0.17 2819:0.137 2820:0.202 2821:0.22 2822:0.145 2823:0.182 2824:0.169 2825:0.179 2826:0.149 2827:0.076 2828:0.272 2829:0.334 2830:0.23 2831:0.14 2832:0.277 2833:0.317 2834:0.197 2835:0.122 2836:0.265 2837:0.242 2838:0.176 2839:0.277 2840:0.28 2841:0.263 2842:0.256 2843:0.248 2844:0.27 2845:0.289 2846:0.217 2847:0.212 2848:0.323 2849:0.32 2850:0.239 2851:0.242 2852:0.315 2853:0.352 2854:0.307 2855:0.291 2856:0.462 2857:0.304 2858:0.336 2859:0.332 2860:0.342 2861:0.383 2862:0.373 2863:0.312 2864:0.401 2865:0.402 2866:0.341 2867:0.426 2868:0.319 2869:0.439 2870:0.439 2871:0.348 2872:0.469 2873:0.371 2874:0.393 2875:0.421 2876:0.41 2877:0.375 2878:0.41 2879:0.354 2880:0.443 2881:0.314 2882:0.44 2883:0.394 2884:0.41 2885:0.347 2886:0.36 2887:0.289 2888:0.327 2889:0.403 2890:0.329 2891:0.311 2892:0.484 2893:0.37 2894:0.275 2895:0.359 2896:0.307 2897:0.332 2898:0.281 2899:0.237 2900:0.427 2901:0.396 2902:0.23 2903:0.303 2904:0.439 2905:0.302 2906:0.28 2907:0.336 2908:0.331 2909:0.296 2910:0.312 2911:0.376 2912:0.445 2913:0.437 2914:0.254 2915:0.351 2916:0.425 2917:0.279 2918:0.249 2919:0.426 2920:0.35 2921:0.212 2922:0.282 2923:0.356 2924:0.277 2925:0.339 2926:0.449 2927:0.397 2928:0.287 2929:0.234 2930:0.364 2931:0.445 2932:0.228 2933:0.31 2934:0.488 2935:0.31 2936:0.342 2937:0.306 2938:0.416 2939:0.13 2940:0.112 2941:0.352 2942:0.328 2943:0.328 2944:0.41 2945:0.63 2946:0.351 2947:0.24 2948:0.365 2949:0.329 2950:0.041 2951:0.251 2952:0.294 2953:0.401 2954:0.266 2955:0.187 2956:0.342 2957:0.303 2958:0.144 2959:0.325 2960:0.471 2961:0.256 2962:0.135 2963:0.602 2964:0.574 2965:0.294 2966:0.344 2967:0.206 2968:0.483 2969:0.131 2970:0.058 2971:0.385 2972:1 2973:0.935 2974:0.377 2975:0.231 2976:0.168 2977:0.372 2978:0.261 2979:0.113 2980:0.346 2981:0.378 2982:0.455 2983:0.035 2984:0.072 2985:0.446 2986:0.279 2987:0.233 2988:0.372 2989:0.144 2990:0.108 2991:0.127 2992:0.087 2993:0.093 2994:0.085 2995:0.087 2996:0.068 2997:0.081 2998:0.072 2999:0.108 3000:0.032 3001:0.059 3002:0.214 3003:0.099 3004:0.179 3005:0.41 3006:0.095 3007:0.096 3008:0.17 3009:0.093 3010:0.125 3011:0.138 3012:0.128 3013:0.059 3014:0.103 3015:0.237 3016:0.053 3017:0.156 3018:0.137 3019:0.062 3020:0.043 3021:0.189 3022:0.216 3023:0.167 3024:0.195 3025:0.281 3026:0.233 3027:0.244 3028:0.217 3029:0.282 3030:0.363 3031:0.468 3032:0.504 3033:0.226 3034:0.253 3035:0.559 3036:0.071 3037:0.506 3038:0.351 3039:0.37 3040:0.345 3041:0.253 3042:0.697 3043:0.5 3044:1 3045:0.588 3046:0.828 3047:0.254 3048:0.712 3049:0.466 3050:0.497 3051:0.656 3052:0.466 3053:0.595 3054:0.627 3055:0.617 3056:0.51 3057:0.522 3058:0.373 3059:0.604 3060:0.54 3061:0.376 3062:0.56 3063:0.382 3064:0.376 3065:0.459 3066:0.157 3067:0.338 3068:0.464 3069:0.369 3070:0.217 3071:0.2 3072:0.284 3073:0.39 3074:0.315 3075:0.356 3076:0.334 3077:0.395 3078:0.375 3079:0.248 3080:0.186 3081:0.411 3082:0.426 3083:0.34 3084:0.286 3085:0.296 3086:0.312 3087:0.448 3088:0.284 3089:0.278 3090:0.307 3091:0.217 3092:0.153 3093:0.235 3094:0.176 